w0 = [[0.433, 0.127, 0.115, 0.36, 0.097, 1.328, -0.308, 1.598, 0.078, -0.602, 0.573, 0.122, -0.753, -0.383, 1.313, 0.651, 0.601, 0.847, 0.691, 0.122, -1.195, -0.617, -0.851, 1.272, 0.607, 0.672, 0.126, 1.194, 2.256, 0.212, 0.991, -0.34, 0.204, -1.19, -0.061, 0.077, 1.197, 1.375, -1.796, -1.365, -1.438, -0.18, -0.498, 0.082, -0.76, 0.548, -0.121, 0.876, -0.588, 0.256, 1.603, -0.38, 1.024, -0.679, 2.662, 0.202, 1.215, 1.035, -0.018, -0.504, 0.046, -0.958, -2.162, -0.141, 0.078, 1.29, 2.109, -0.073, -0.684, 0.578, 1.323, 0.22, -0.858, -0.731, 0.554, -0.726, 1.227, 1.417, -1.009, -2.222, 1.451, 1.21, 0.682, -0.882, -1.254, -0.329, -0.417, 0.734, -1.203, 0.042, -0.1, 0.601, -0.128, -0.652, -0.808, 2.09, 0.11, 1.437, 0.609, 1.903, 3.083, 0.286, 3.002, 0.358, 1.722, -0.144, -1.239, 0.037, -1.873, 0.71, 2.281, 1.298, 0.308, 0.133, 0.791, -1.218, -2.374, -0.718, -2.233, -0.719, 1.759, 2.666, -0.108, 1.801, 0.098, 2.475, 2.669, 1.351, -0.68, 0.171, 1.557, 1.957, 0.157, -0.273, -0.288, -0.868, -1.447, 0.941, -0.203, -0.368, -0.047, -1.459, 0.021, -0.448, 1.848, 0.802, 2.177, 1.137, -0.257, -0.115, 4.345, -0.33, 0.565, 0.68, 0.198, -0.07, 0.386, 1.093, 0.342, -0.442, -1.422, 0.255, 1.05, 0.43, -0.079, -0.725, 0.574, 1.483, 1.794, -1.497, -0.586, -1.472, -0.404, -1.072, 0.851, 1.337, 0.751, 1.664, 0.551, -0.258, 0.344, -0.871, 0.735, -0.241, 1.285, 0.353, 0.554, -0.154, 0.224, -1.048, -0.531, -0.94, -0.51, -0.615, -0.165, -2.036, -2.334, -0.905, 1.742, -1.263, 1.11, 0.117, 1.798, 1.11, 0.594, 1.434, 1.981, 2.113, 0.686, -0.49, 1.329, 1.987, 0.184, 1.212, -0.463, -1.057, -1.004, -2.306, -1.339, -0.493, -1.993, -0.426, -2.114, -0.971, -0.625, -0.331, -0.856, 1.354, -2.036, 0.625, 0.756, 1.525, 0.632, 1.92, 0.036, 1.701, 0.854, -0.968, 1.116, 0.346, -1.003, -0.516, 0.153, -0.852, -0.591, 1.065, -0.683, -0.651, -0.931, -0.801, 1.05, -0.302, 1.681, 1.018, -0.76, -0.519, -0.226, 1.329, -2.164, 0.865, 0.755, -0.83, 0.854, 0.376, 1.183, -1.147, -0.511, 1.311, 0.006, -0.4, 0.66, 1.399, -0.409, -2.294, -0.585, 1.392, -2.322, -0.75, 1.386, -1.179, -0.116, 2.291, -1.516, -1.074, 1.982, -0.734, -0.041, 0.643, -1.065, 0.058, -0.21, -1.722, -0.688, 0.167, -0.444, 0.474, 0.293, -0.287, -0.41, 0.334, 0.558, 0.462, -0.774, 0.864, -1.64, -1.164, -0.071, -0.455, -0.205, -0.41, 0.669, -0.872, -1.455, 0.832, -0.683, 0.222, -1.171, -1.344, -3.239, -0.629, -3.517, -3.708, -4.584, -2.161, -1.401, -1.141, -0.138, 1.506, 0.188, -0.025, 1.887, 0.416, -2.319, -2.382, 0.938, -1.094, 0.102, -2.139, 0.296, -1.153, 0.549, -0.068, -1.408, -2.252, -0.622, -1.846, -2.624, -3.978, -1.588, -2.102, -2.53, -2.214, -2.142, -1.914, -1.396, 0.288, 0.687, 0.495, -1.186, 0.868, -1.294, 1.884, 0.18, 0.104, 1.798, 0.227, 0.559, 1.703, 0.886, 0.688, -1.368, -1.341, -0.083, -0.059, -1.239, -1.021, -2.287, -1.831, -1.757, -1.814, 0.345, -1.013, -1.309, 0.471, 1.053, 1.365, 0.443, 0.126, 0.405, 0.515, 0.325, 1.083, -1.315, 1.527, 1.366, 2.476, -0.107, -1.014, -2.071, -0.725, 1.398, -0.089, -0.555, -0.481, -1.27, -0.602, 0.159, -0.692, -0.112, -2.281, -1.155, 0.366, -0.899, 0.254, 1.873, 0.769, -0.537, 0.426, 2.032, -0.998, 0.824, -1.462, -1.15, -0.101, -0.521, -0.735, -0.19, 3.822, 1.41, 1.397, 0.348, 0.207, -1.362, -1.205, 0.46, 0.908, -0.113, 0.981, -1.078, 0.715, 0.83, -0.649, -0.206, -0.473, 0.35, -0.707, 2.316, -0.619, 1.136, 0.517, 0.299, -0.276, 1.858, -0.094, -0.208, 1.177, -0.021, 0.233, 1.15, 1.14, -0.719, 0.705, -0.839, -0.201, 1.614, 0.264, 0.348, -0.1, -0.136, 1.117, -0.36, -0.516, 0.323, 0.867, 1.961, -0.573, 0.29, 0.04, -1.955, 0.45, -0.545, 1.895, 1.127, 0.804, 0.276, 1.592, 0.714, 1.972, -0.73, 1.391, 0.344, 0.238, -0.003, -2.128, -1.399, -1.538, 0.722, -1.123, -0.018, 1.522, 1.882, 1.05, -0.234, 1.152, 0.685, -1.198, -0.103, -1.971, -0.391, 0.248, -0.132, 0.134, -0.362, 0.077, 1.238, 1.916, 1.691, 1.289, 0.684, 0.604, 0.566, -0.334, 0.467, -1.383, -2.5, 0.846, -0.234, 1.763, 0.473, 0.485, 1.263, 0.293, 0.293, -0.392, 1.296, -0.783, -0.228, 0.148, 0.537, -0.366, 0.099, 1.09, 2.032, -0.145, 0.79, 0.62, 0.813, -0.029, 0.284, -0.01, -0.186, 0.792, -0.398, 0.972, 0.719, 1.92, 2.57, -1.129, -1.016, -3.12, 0.032, -1.082, -2.379, 0.075, 0.309, -0.255, 0.517, 0.742, 1.737, 1.822, -0.447, 2.627, -0.593, 0.375, 0.721, -0.42, 0.814, -1.562, -1.448, -0.597, 0.384, -0.501, 0.922, 0.357, -0.917, 0.541, 0.882, 0.423, 0.529, 0.04, 0.132, 0.503, 0.956, 0.237, -0.342, -0.917, 0.069, -1.039, -0.528, 1.063, -0.963, 2.191, 0.119, -0.103, -0.651, 1.651, -1.13, 1.328, 0.263, 1.367, 1.657, 1.431, 0.532, -1.23, 3.06, 0.338, 0.13, -0.565, -1.072, 0.578, -1.192, -0.67, -0.18, -1.603, -0.052, 0.43, -1.069, -0.165, 1.152, -1.294, -0.151, -1.084, -1.981, -0.643, -1.196, -0.975, 0.727, 0.029, -1.415, 0.036, -0.632, 0.162, -0.017, 0.387, -0.717, -0.826, 0.004, 1.691, -1.228, 0.056, 2.568, -1.694, -0.902, -1.517, -1.155, -1.242, 0.036, -1.214, 0.267, -0.847, -0.123, -1.228, -2.547, -1.206, 0.777, 0.458, 0.053, 0.522, 0.236, -1.398, -0.613, -0.413, -1.208, 1.35, 2.1, -0.11, -0.771, 0.448, -1.669, -3.073, 0.337, -0.445, -0.366, -2.759, 0.269, -1.085, 0.53, 0.989, 0.094, 0.323, -1.417, -0.009, -1.396, 0.561, 0.998, 0.812, 0.105, 2.238, -0.136, -1.173, -1.003, -0.399, 0.353, 0.214, -1.51, -0.719, 1.245, 0.452, 0.956, -1.591, -0.572, 0.94, -1.298, 0.275, 1.016, 0.491, 1.439, 0.01, -0.047, -0.138, -1.707, -1.575, -1.862, -0.251, 0.57, -0.173, -2.535, -1.945, -0.259, -0.725, 2.055, -1.059, -1.103, 0.325, -0.545, 0.366, 0.821, 1.179, 1.416, 2.123, 0.821, -0.515, 0.448, 1.182, 0.225, 0.741, -0.268, 1.265, -0.562, -0.231, 0.229, 0.016, -0.061, -0.014, 0.78, 0.817, -0.547, -0.84, 1.372, 0.626, 0.556, 0.594, 1.138, 0.512, -0.453, 0.235, 0.627, -1.157, 0.291, 0.05, -0.495, 0.924, -0.784, 1.691, 1.41, -0.231, -1.357, -0.521, -0.244, 1.075, -1.489, -1.045, -0.18, -0.731], [0.722, -0.225, 0.882, 0.595, -0.98, -1.02, -0.532, -1.082, 0.686, -0.306, 0.204, -1.774, -0.652, 0.76, 1.709, -0.021, 0.347, 0.591, 0.369, 1.158, 0.413, -0.849, -0.403, -0.413, 0.105, 0.842, -0.701, 0.371, -1.972, 0.575, 0.527, 2.184, -0.085, -0.381, -0.593, -0.277, -0.403, -0.79, -0.295, -0.13, 0.13, 1.47, -0.011, 2.278, -1.699, 0.544, -0.29, 0.558, 1.907, 1.382, -0.318, -1.142, -0.735, 1.358, 0.873, -0.164, 0.719, -0.85, 0.809, 0.072, -0.331, -0.452, -1.531, -1.35, 0.21, 0.59, -0.596, -0.758, 0.55, 0.816, 0.014, -0.419, 0.526, 0.707, 1.117, -0.353, -0.697, -1.805, -1.213, 0.472, -0.078, -1.811, -1.401, -1.318, 1.509, -1.181, -0.429, -0.59, -1.123, -0.213, -1.812, 0.43, 0.446, -0.009, -0.461, 0.424, 0.226, -0.509, -0.611, 0.925, -0.574, -1.265, -0.814, 1.337, 1.191, -0.803, 0.431, 2.04, 0.009, -2.2, 1.311, -1.585, -1.429, -0.057, 0.106, 0.235, 0.844, 0.416, 0.046, -1.584, 0.473, -0.778, 1.299, 0.849, -0.697, 0.534, 1.605, -0.254, -0.285, 0.951, -1.178, -0.719, -1.644, -0.01, -1.984, 0.126, -0.354, 0.032, -0.723, -0.848, -0.492, 0.101, -0.316, -0.408, 0.601, 0.506, 0.112, -0.605, 0.043, 1.236, -1.26, 1.504, -0.558, -0.031, 0.935, 2.773, -1.169, 0.557, 0.218, 0.602, 1.612, 0.4, -1.211, -1.407, -1.118, -1.746, -0.538, 1.587, 0.256, 0.767, -0.026, 0.892, -0.63, -0.283, -0.279, 1.18, 0.208, -1.238, 1.611, 0.213, -1.329, -0.886, -0.133, -0.026, 1.266, 1.313, 0.517, -0.072, -0.02, 1.697, -0.175, -0.019, -0.27, -3.242, 0.274, -0.701, 0.309, 1.194, -0.46, -0.549, -1.494, -1.511, -0.345, -1.82, -1.161, -0.926, -0.006, -0.397, 0.425, -0.576, -1.094, 1.546, 0.091, 0.42, -0.126, 0.114, -0.249, -1.437, 0.072, -0.738, -2.02, -1.217, -0.41, 0.304, -1.587, -1.039, 1.605, 0.113, -0.746, 0.423, -1.841, 0.267, -1.551, 0.903, -2.319, -0.184, 0.931, -0.348, -0.826, 0.224, 0.933, -0.223, -1.95, 0.097, 0.759, -0.697, -2.607, -0.883, -0.664, -0.699, 2.134, 0.122, 0.833, -2.615, 1.044, -1.297, -1.349, 0.993, -1.53, -0.217, -0.529, -0.595, -2.317, -0.86, -2.393, -0.932, 0.12, -0.79, -0.85, 0.139, -0.386, -0.379, -0.166, 0.17, 1.492, -0.707, 0.573, -0.881, 1.815, 0.083, 0.006, -0.919, -1.987, 1.944, -0.965, -0.957, -1.973, -1.591, -1.013, -1.375, -1.217, -0.166, -2.342, -2.765, -2.157, 0.184, -1.776, 1.417, 0.748, 1.318, 0.715, 0.217, -0.307, 0.081, 0.776, 1.216, 0.233, -0.872, -0.705, 0.38, 0.57, 0.971, -0.516, -0.623, 1.617, -1.742, 1.04, -1.675, 0.279, -0.728, -0.65, -1.685, 0.853, -0.815, -0.188, -0.8, 0.134, -0.239, 0.027, -0.239, 0.386, 0.28, 1.036, 0.908, 0.117, 1.204, -0.429, 0.784, -0.177, 0.541, 1.041, -0.673, 0.699, -1.612, 0.426, 0.173, 0.506, 2.039, 0.106, 2.452, -1.03, 0.283, 1.32, 0.033, 0.054, 0.091, -0.213, 0.121, 0.526, 2.045, 0.053, 1.738, -0.282, -0.937, -0.355, -0.332, -0.77, -0.022, -1.387, 1.736, 1.354, 1.518, -0.532, 1.411, -0.413, 2.125, 2.522, 1.399, -0.904, -0.332, -0.47, -0.621, 2.476, 0.58, -0.032, 0.442, 1.728, 0.389, -0.042, 1.16, 1.139, 0.626, -0.06, -0.73, -0.545, -1.187, -1.664, 0.771, 1.786, 2.193, 1.6, 0.839, 0.841, 3.794, 1.556, 0.722, 1.716, 2.139, 1.291, 0.842, 0.945, 0.086, 0.884, 0.563, 0.852, -0.261, 0.758, 1.548, -1.025, -1.032, 1.268, 0.95, 0.769, -0.689, -0.288, 2.104, 1.069, 1.571, 2.905, 1.369, 2.813, 2.018, -0.066, -0.978, -0.436, -0.213, 1.008, 1.667, -0.435, 0.678, 1.673, -1.066, 0.882, 0.374, 0.039, 0.301, -0.614, -1.502, 0.508, 0.604, -1.093, 0.438, 0.535, 1.879, 1.585, 0.913, -0.509, 0.796, -0.523, 0.048, 0.044, -0.056, -1.579, 1.285, 0.109, 0.45, 2.672, -0.227, 1.37, 0.468, -0.249, 1.599, -1.657, -1.588, 0.762, -0.962, -0.397, 0.899, 0.119, -0.35, -1.356, 1.643, 2.479, 1.36, 1.813, 1.949, -0.065, -0.995, 0.907, -0.674, -0.521, 0.978, 0.52, -1.331, -1.043, 0.756, 1.188, -0.561, 1.618, -0.225, -0.063, -0.124, -1.213, 0.407, -0.514, 0.568, 1.247, 0.04, 0.262, 0.804, -0.137, 0.167, -0.165, -2.169, -1.469, -0.421, -2.627, -2.487, -0.306, 0.155, 0.249, 1.308, -0.13, 0.792, 1.301, -1.069, 1.247, 0.575, 1.055, -1.504, -1.091, -0.608, 0.389, -0.218, 1.291, 0.839, 0.215, 0.064, 0.977, -1.953, 0.804, -0.573, -0.627, 1.603, -0.369, -0.488, -0.514, 0.006, 0.13, 1.043, 2.79, -0.11, 0.901, 1.832, -0.994, -0.786, -0.702, 0.567, 0.802, -0.875, -1.286, -0.537, 0.194, 1.043, -0.076, -2.668, -0.982, -0.092, 0.456, -1.945, 0.99, -0.816, -0.762, 1.269, -0.592, -0.002, -0.584, 2.152, -2.896, 0.574, 0.28, -0.694, -0.983, -1.316, -0.105, -0.343, 0.181, 1.396, -0.38, -0.289, -0.24, -0.479, 1.243, -1.203, 0.74, 0.422, -0.582, -1.676, 0.77, -0.367, -0.07, -1.448, 0.372, -0.805, -0.003, 1.192, -0.219, 0.29, 0.886, -1.606, 1.495, 0.152, 0.077, -0.349, 0.279, -0.204, 0.776, 1.712, -1.11, -0.159, -0.331, -2.38, 0.16, 0.71, -0.536, -1.646, -0.771, 0.584, -0.543, -0.614, 0.712, -0.193, -0.126, -0.05, -3.166, 1.144, 0.117, 0.72, -1.918, -0.764, 2.858, -1.868, -0.563, -1.643, 0.982, 0.109, -1.062, 0.79, 0.337, -2.109, -1.646, -0.558, 1.109, 0.084, -0.045, 0.572, -0.287, -0.431, -0.569, 1.138, 1.786, -1.368, -1.397, -0.487, 0.232, 0.116, 0.443, -1.915, -0.499, -2.427, 0.18, -0.924, 1.59, -1.233, 0.687, 0.747, -0.286, 0.791, 0.858, -0.254, 0.383, 0.796, 0.721, 0.032, -0.192, 2.38, 0.293, -0.36, 0.071, 0.817, 1.391, 1.243, 1.001, 0.185, 0.529, 0.765, -0.312, -1.259, 0.166, 0.243, 0.588, -0.331, 0.563, 0.125, -2.317, -0.106, -1.57, 1.108, -0.328, -0.416, 1.609, 0.172, -0.028, -0.536, -0.526, 0.479, -1.269, 1.734, -0.098, 1.514, -0.269, -0.561, 1.389, 0.238, -0.029, 0.266, -0.92, -0.216, -1.651, -0.809, 0.323, 0.326, 0.39, 0.06, 1.567, -1.153, -1.905, -1.617, -0.206, -0.322, 2.2, -0.59, -0.564, 0.953, -1.499, 1.139, 0.987, -0.148, -0.974, 0.766, 0.861, 0.28, -0.01, -0.254, 0.358, 0.419, 0.348, -0.426, 0.524, 0.626, 1.914, 0.468, 1.25, 0.555, -1.008, -0.154, -0.551, 0.085, -0.008, -0.772, -1.563, -0.078, -0.998, -0.487, 1.343, 1.058, 0.424, -1.825, 0.175, 1.121, 2.655, 0.159, 1.02, 0.793], [1.381, -0.063, -2.434, -0.983, -0.89, 0.383, -0.661, -1.145, 0.207, 1.451, 0.025, -2.739, -0.139, 2.45, 0.824, 0.403, 0.944, 1.187, -1.057, 0.725, 0.147, -0.311, 0.004, -0.216, -1.394, -1.284, 1.669, 0.384, -0.475, 0.945, 1.104, -0.01, -0.488, 0.537, -0.644, -0.399, 0.53, -0.701, 0.041, 0.047, -0.454, 0.583, -0.944, 0.691, -0.632, 0.247, -0.817, 1.331, -0.88, 0.155, -1.472, 1.794, -0.972, -1.286, 1.711, -0.527, 0.296, 1.664, 1.481, 1.97, -0.936, -0.113, -0.473, -0.97, -1.409, 1.754, -0.183, -0.241, -1.072, -0.06, 1.179, 1.107, 0.465, -0.147, -1.039, -1.358, 0.071, -0.425, -1.095, 0.421, -0.104, -1.677, 1.662, 1.15, -1.889, 0.515, 1.11, -1.437, 1.609, -0.561, -0.455, -0.333, 1.124, -1.674, 0.253, -0.083, -0.011, -2.201, 1.735, 0.872, -0.098, -0.933, -0.016, 0.341, 0.177, 0.52, 0.142, 0.322, -0.37, 0.556, 0.313, 0.359, 1.424, -0.821, 1.217, -0.695, 2.031, -0.608, 0.125, -0.179, 1.477, -0.638, -0.263, -0.394, -0.209, -0.427, -1.18, -0.805, 0.907, 0.035, -0.906, 0.153, 1.429, 2.323, -1.332, -1.255, 0.103, -1.155, 0.568, -0.654, -0.043, -0.245, -0.972, -0.71, -0.503, 0.421, -0.971, 0.138, 0.577, -0.149, -0.336, -1.297, -0.261, -0.194, -1.007, 0.181, -0.261, 1.357, -0.665, 0.045, -1.017, -1.072, -0.086, 0.664, -0.565, -2.514, 0.109, 0.854, 0.788, 0.117, 0.005, -1.593, 1.097, 0.643, -1.207, -1.101, -2.001, -0.129, -1.08, 0.545, -0.897, 0.524, -0.387, -0.914, 0.548, 0.555, -1.27, 1.069, -0.555, 0.918, 0.269, -0.16, -1.23, 1.196, -0.963, 1.74, 0.74, 1.335, 0.623, 0.43, -1.368, 0.995, 0.056, 0.79, 0.674, 0.778, -0.361, 0.278, -0.042, -1.679, -2.316, 0.186, -1.021, -0.103, -0.65, -0.712, -0.625, -0.875, -0.09, -0.326, -2.923, -2.107, 2.416, -0.985, -0.006, 0.827, -0.294, -0.033, -0.728, -1.948, 0.573, -0.396, 0.346, 1.222, -0.453, 0.455, 0.102, -0.11, 0.991, 0.101, 0.52, 1.351, 1.546, -1.142, 0.297, 0.355, -1.286, 1.179, 0.093, -0.546, -0.136, -1.157, 0.76, 0.31, 1.459, 0.267, -0.939, 1.557, 0.234, -0.416, 0.892, -1.443, -0.607, 0.089, 1.024, -0.4, -0.676, -0.188, 0.616, 1.06, 0.096, 0.869, 0.574, 0.225, 1.164, -0.736, -0.175, -0.866, -0.469, 0.443, -2.023, 0.441, -1.518, 0.71, -0.692, -0.202, 0.131, -0.794, -1.266, -0.19, -0.481, 0.253, -1.877, -0.617, -2.557, -0.414, -0.338, 1.342, 1.281, 1.846, 0.149, 0.276, 0.785, -0.29, -1.355, -1.221, -1.364, 0.081, -0.358, -1.208, -0.651, 0.78, 0.853, -0.507, -0.719, -0.321, 0.46, 0.857, 0.268, 0.032, -0.391, -0.865, -0.325, -1.571, -0.137, 0.271, -0.806, 1.789, -0.422, 0.643, 1.338, 0.673, 0.067, -1.461, 0.581, -0.86, 0.049, -0.277, 0.428, 2.039, 1.509, 0.581, 1.323, -0.379, 2.169, 0.324, -1.494, -1.632, 0.391, -0.289, -0.564, -0.781, -0.914, -0.706, -1.378, -0.364, 1.297, 1.687, 3.015, 2.255, 1.401, 0.612, 0.98, -0.869, -0.477, 0.526, 0.556, -1.635, 0.171, -0.751, 2.099, 1.341, 0.359, -0.77, -0.212, -0.774, -0.384, -2.099, 0.503, -0.625, 0.263, 1.213, 1.323, -0.673, 1.027, 1.989, -0.762, 0.51, 0.971, 0.198, -0.846, 0.844, 1.421, -0.464, 0.284, -0.082, 0.354, 0.133, -1.146, 0.483, -0.174, -0.388, -0.606, 0.243, -1.01, -0.014, 1.079, 0.359, -0.525, -0.892, 1.027, 1.538, -0.828, 1.568, 1.9, 2.145, -0.237, -0.072, 0.663, 0.786, 0.786, 1.497, 0.527, 1.629, 1.001, 1.599, 1.675, 1.347, 1.505, 0.179, -1.315, -1.004, -1.494, -1.498, -0.221, -0.4, 0.76, 1.518, -0.694, -0.427, 1.828, -0.106, -0.49, -0.758, 0.611, -0.554, 0.589, -0.703, -1.325, -2.233, 1.264, 1.028, 0.49, 0.849, 1.042, 3.791, 4.181, 4.455, 2.617, 1.399, -0.897, -0.453, 1.328, 0.818, 0.496, 0.412, 1.896, -0.584, 0.922, -1.505, 1.048, 0.107, -0.214, 1.175, 1.334, 1.401, 0.134, 0.136, -0.946, 0.251, -1.473, 0.949, 3.071, 2.433, 1.706, 5.295, 6.035, 4.208, 4.468, 1.776, 0.921, 1.715, -0.444, 0.311, 0.762, -0.65, 0.103, -1.96, -0.232, 0.292, -0.236, -0.046, -0.566, -0.63, -0.323, 0.251, 1.239, -1.137, -1.007, 0.381, 0.344, -0.043, 1.992, 2.608, 3.834, 4.51, 3.053, 3.046, -0.17, 0.129, -0.682, 0.445, -1.004, -0.168, 0.08, 1.47, 1.914, 0.176, -0.638, 0.039, 0.755, 0.987, -0.66, 0.727, 1.044, -0.836, -1.724, -0.828, -0.803, -0.755, -1.559, -0.29, 0.228, 0.861, 2.629, 1.639, 0.524, -1.343, 0.427, -0.63, 2.108, 1.373, -0.929, -0.833, 2.248, 1.53, 0.22, 1.434, -0.576, 0.082, 0.427, 0.525, 0.114, 0.128, 0.305, -0.542, -1.164, -0.827, -0.71, -1.435, -0.813, -1.443, -0.743, -1.232, -0.228, -0.193, 0.279, 0.343, -0.798, -0.283, 0.614, -0.422, -1.513, -0.625, 0.835, 2.174, 1.394, -2.147, 0.376, 1.814, -0.006, 1.575, -0.184, -0.215, -1.486, 0.967, -1.375, -0.798, -1.388, 0.351, 0.116, -0.36, 1.492, -0.172, -0.992, -0.684, -1.213, 0.971, 0.187, 1.358, -0.669, -0.999, -0.236, -0.729, -0.227, 0.508, 1.547, -1.692, -0.611, 0.059, -0.338, 1.016, -0.436, 0.43, 1.651, -0.001, -1.039, -0.14, 0.062, 1.013, 0.585, -0.077, 0.485, 0.575, 0.611, 0.176, -0.188, 0.094, 0.869, 0.099, 0.363, 0.409, 0.282, -0.416, 0.339, 1.293, 0.687, -0.404, -1.439, -1.169, 1.295, -2.0, -1.494, -0.369, -0.846, 0.258, -0.942, 0.367, 0.459, 0.415, 0.38, -0.719, -0.423, -0.203, -0.07, -0.275, 0.358, 1.533, -1.569, -0.42, 0.406, 1.058, -0.28, 0.552, 1.532, -1.986, -0.1, -0.649, -0.102, 0.409, -1.944, -1.005, -0.244, -0.827, -0.981, 1.531, -1.067, 0.279, 0.258, 1.272, 0.858, 2.109, -0.842, -0.44, -1.383, -0.453, 2.177, -0.553, -0.562, 0.095, -0.018, -1.286, 1.303, 0.107, -0.534, -2.068, -1.435, 0.576, -1.034, -1.217, 0.663, -0.422, 0.009, 0.076, -0.569, 1.086, -1.005, 0.574, 2.054, 0.828, -0.622, -0.755, -0.513, 0.742, -0.025, -0.433, -0.501, 1.498, -1.033, 0.236, 0.507, -1.25, -0.105, -0.499, -0.584, -1.464, -1.022, -1.69, -0.968, -1.511, -1.565, 0.89, 0.457, -0.634, -0.822, 0.511, 1.199, -1.014, 0.55, -0.206, -0.478, -2.678, -0.252, -1.164, -0.143, -0.642, 2.599, 1.273, 0.209, 1.279, -0.15, 0.641, 0.544, -0.806, 0.526, 0.364, -0.737, -0.306, 0.099, 0.441, -1.211, -0.243, 0.836, -0.832, -0.855, 0.464, -0.071, -0.444, -0.446, 0.119, -0.831, -0.774, -0.919, -1.988], [-0.279, -1.497, -1.104, 0.14, -1.213, 0.422, -0.636, 0.328, 0.852, -0.368, -0.064, -0.425, -1.989, 0.454, 0.353, -2.019, 1.401, -0.606, -1.301, -1.251, -1.038, 0.654, 0.688, 0.259, -0.85, 0.086, -0.585, 0.847, -0.803, -0.406, -1.224, -0.7, -0.221, 0.721, -0.064, 0.499, -1.01, -0.401, -1.823, -1.362, 1.11, 1.629, 1.414, -2.091, -0.95, 0.887, 0.571, -0.612, -0.449, 0.693, -0.041, -1.554, 0.395, 1.235, 0.078, 0.871, -1.032, 0.306, -1.128, -1.439, -0.593, 0.802, -0.295, 0.039, -0.573, 1.268, -0.545, 0.346, -0.302, -1.063, -0.453, -1.526, -0.116, 0.909, 0.875, 1.331, 0.843, -0.125, -1.187, -0.377, 2.8, 0.679, -0.023, -0.045, 0.055, -1.185, 0.472, -1.82, -0.83, 0.622, 0.404, 0.602, -1.419, 0.011, 1.523, -1.576, -0.671, -0.874, -0.191, 0.541, 0.748, 0.045, -0.661, -0.678, -0.241, 0.982, 0.175, 0.744, -1.116, 0.334, -1.496, -0.115, 1.24, 0.037, -0.755, -1.486, -0.342, 0.372, -1.191, -0.74, -0.579, 0.99, 0.752, -1.004, 0.606, 0.72, -1.09, -0.982, -1.267, -2.923, 1.438, -0.252, 0.573, -1.35, -0.199, -0.554, 1.212, 1.262, -0.197, 0.207, -0.009, 1.221, 0.39, -1.461, -0.428, -0.104, 0.365, 0.564, -0.721, -1.159, -0.912, -2.583, 1.788, 0.643, -1.115, -0.512, 0.279, 0.411, -0.318, -0.588, 0.947, 1.715, 0.881, -0.402, 0.52, 0.384, 1.168, -0.485, 1.003, 0.1, 0.746, 0.52, 0.21, 1.211, -1.238, -0.201, 0.531, -0.907, 0.637, 0.735, -0.065, 0.438, -0.849, -2.057, -0.011, 0.771, -0.627, -1.249, 0.905, 2.368, -0.961, 0.893, 0.315, 1.046, -0.581, 1.476, -1.17, 1.231, -0.372, -0.542, -0.589, 0.81, 0.413, 0.461, -1.214, 0.116, -0.509, 1.147, 0.513, 1.059, -0.853, 0.297, -0.065, 0.32, 0.18, 1.408, 0.591, 2.655, -0.683, -1.239, -0.102, -1.12, -1.178, -1.862, -0.068, -1.517, 0.252, 0.361, -0.979, -0.08, -1.698, 1.741, 0.926, -0.155, 0.294, -0.033, 0.703, 1.497, -1.663, -1.181, -0.522, -1.716, 0.388, 1.128, -0.436, 1.901, -0.924, 1.252, -0.27, 2.376, -0.351, -0.289, -0.943, -0.392, 1.75, -0.089, -1.382, -1.028, 0.701, -0.112, 0.061, 1.361, 0.015, 2.304, 1.396, -0.433, -2.044, -1.194, -1.798, -0.047, -0.279, -0.496, 0.149, -1.584, 0.243, 1.397, -0.398, -0.28, 1.117, -0.496, -1.176, -1.417, 0.471, 1.032, 0.13, 0.476, -0.352, -1.634, 0.722, 0.527, 1.425, -0.075, -1.166, -1.845, -0.674, -1.389, -0.925, -0.926, -1.739, 0.58, 0.556, 0.456, -0.987, -0.942, -0.768, 1.286, -0.241, -1.211, -0.374, 1.359, 0.817, 0.352, -0.233, -0.352, 2.418, -0.633, 2.281, 0.582, 1.39, 2.143, -1.416, -0.915, -1.843, -1.737, -0.824, -0.014, -0.193, -0.63, -0.65, 0.219, -0.543, -0.657, -3.105, -1.498, 0.692, -0.434, -0.356, -0.725, 0.025, -0.532, -0.292, 0.097, 1.916, 0.749, 0.467, 0.966, 2.129, 0.055, 1.889, 1.882, -0.673, -1.308, -1.954, -1.049, -1.165, 0.166, -0.989, -0.035, 0.361, -2.133, 1.184, 0.447, 1.433, 0.178, -0.434, 0.788, 0.01, -1.132, -1.336, 0.104, -0.481, -0.446, -0.631, 1.327, -0.931, 1.47, 0.17, -1.204, -0.554, 1.808, -2.662, -0.533, -1.866, -0.182, 0.838, 0.592, -0.495, 0.553, -0.729, -0.818, -0.445, -1.382, 0.632, -0.971, -1.386, -1.309, -0.069, 2.595, -0.714, 1.548, 1.193, 0.886, 1.074, -2.286, -0.226, -0.786, -1.58, -0.26, -1.174, -1.525, 1.279, -0.169, 0.341, -1.493, 1.299, 0.295, 1.067, -0.446, 1.206, -0.206, 0.046, -1.164, 1.792, 2.457, 1.007, -0.032, -1.07, -1.382, -2.373, -0.449, 0.58, -0.687, 0.442, 0.096, -0.551, -1.857, 0.658, -2.488, 0.718, 0.498, 0.315, 0.628, -1.163, -1.918, -0.331, 1.739, 0.766, -0.942, -1.316, 1.015, 0.213, 0.602, -0.208, -0.352, -0.971, 0.99, -1.456, 0.595, 0.255, -0.386, -0.673, -0.237, -0.037, -0.697, 0.834, -1.723, 0.45, 1.388, -1.648, -0.236, 1.643, -1.267, 0.88, -0.209, 0.9, 1.163, 1.103, 0.385, -0.32, 0.276, 0.215, -0.831, -0.489, 0.518, 0.944, 0.46, -0.391, 0.12, -1.825, -2.023, -0.934, -2.606, -0.966, -0.651, 1.627, 1.381, -0.839, 0.634, -0.232, 0.746, -0.57, -0.775, 1.255, -0.675, 0.364, 1.426, -0.224, -0.11, -0.853, -1.02, 0.87, 0.487, -2.899, 0.176, -1.259, 0.601, -1.735, 0.084, -1.195, 0.084, -2.324, -0.204, -1.777, 0.662, 0.79, -0.887, 0.839, 0.606, 0.334, -0.763, -0.303, 0.873, 0.897, -0.032, -0.722, 1.858, 1.455, -0.46, 0.098, -0.169, -1.62, 0.205, -0.363, -0.434, -1.401, -0.184, -1.628, -0.754, -0.612, 1.153, 1.552, -0.749, -0.0, 0.898, 1.149, 0.132, 0.212, 1.263, 0.183, 0.901, 0.138, 0.473, -0.794, 2.31, 0.343, -1.567, -1.872, 0.037, -1.353, 0.55, -0.485, -0.65, 0.665, -1.681, -0.705, 1.351, 1.455, -0.479, 0.277, 0.597, -2.36, 1.71, 1.393, 0.257, -0.37, -1.857, -0.263, 0.061, 0.193, 0.453, -0.737, -0.114, -0.916, -0.288, 0.486, -3.208, 1.07, -0.327, -2.28, 0.034, 0.408, -0.04, -0.409, -1.604, 0.761, 1.006, 2.105, 0.076, -0.209, 0.255, 0.519, 0.663, 0.143, 0.426, -1.082, -0.404, 0.865, 2.198, 0.359, 1.367, -0.193, -0.021, -0.174, -0.238, -0.994, -0.921, -0.416, 0.844, 0.914, -0.431, -0.141, -0.012, -0.455, 0.295, 0.212, -0.655, -0.379, -2.136, -0.046, 0.882, -0.614, 0.895, -2.19, 0.782, -0.475, 0.154, 0.835, 1.031, -0.575, -0.448, 0.602, -0.284, -0.86, -1.231, 1.333, -0.445, 1.011, 0.927, 0.105, 1.959, -0.501, 0.053, 1.479, 0.216, -0.624, 0.764, -0.232, 0.292, -0.613, -0.574, 1.035, -0.06, -1.0, 0.59, -1.646, -0.418, 0.696, 0.491, 0.559, -2.017, -0.885, 0.109, -0.757, 0.461, 0.511, 0.336, 0.268, -0.858, 0.909, 2.204, -0.42, -1.232, -0.434, 0.643, -0.151, -0.6, -0.282, 0.493, -0.158, 0.625, 0.878, -1.491, -0.335, -0.441, -0.262, 0.294, -0.606, -1.352, -0.072, 0.908, 1.11, -0.17, -0.248, 0.196, -0.979, 0.444, -0.578, 0.135, -0.968, -0.985, 1.0, 0.947, -0.682, 1.625, -1.32, 0.678, -1.79, 0.073, 0.036, -0.024, -0.33, 1.974, 0.437, 1.402, -2.012, -1.326, -0.359, -0.106, -2.034, 0.587, -0.457, 0.56, -0.658, -0.016, -0.642, 0.14, -0.246, -0.971, 0.245, 1.171, -0.275, -0.115, 1.509, 0.702, -0.397, 0.541, 0.666, -1.394, 0.205, -0.14, -0.714, 0.017, 0.466, 1.359, 1.158, -1.674, 0.859, -0.835, -1.149, 0.259, 1.664, -0.416, -1.716, -0.773, 1.693, 0.044, -1.029, -0.16, -0.22, 1.51, 0.648, -0.143, 0.696, 1.858], [-1.136, -0.058, 0.176, 2.408, -0.619, -0.555, 0.479, -1.0, -0.863, -1.594, -1.098, -0.46, 0.845, 0.566, 0.716, -0.55, 0.69, -0.898, -0.667, -0.534, -0.289, -1.592, 0.277, 0.513, -0.648, -0.166, -1.033, -0.834, 1.312, -0.209, 0.604, 0.272, 0.079, -0.265, 1.015, -0.502, -1.076, -1.329, 1.901, 0.722, 0.187, 0.243, -0.91, 0.069, -0.168, 1.159, 0.992, 0.808, -0.904, 0.115, -0.629, -0.831, -0.23, 0.099, 0.666, 1.115, 0.771, 0.919, 0.257, -1.377, 1.565, -1.366, 0.352, 0.245, 0.679, 0.224, 0.096, -0.683, -0.23, -1.265, -1.588, 2.236, -0.085, 1.762, 0.028, -1.457, -1.098, -0.271, 2.227, -1.427, 0.621, 0.022, 2.06, 0.305, -0.163, -1.037, 0.015, -1.558, 0.719, -0.809, -0.263, 0.671, 1.108, -0.129, -0.382, 0.527, 0.54, 0.604, -0.257, 0.207, -0.076, 0.573, 1.216, -0.441, 1.195, -1.197, 0.305, -1.491, 2.464, 0.966, 0.275, -0.619, 0.003, 0.176, -0.276, -0.06, 1.131, 0.487, 0.522, 0.491, -0.369, -0.033, 0.391, -1.278, -0.363, 1.112, 0.819, 0.122, 0.124, -0.534, 0.244, 0.322, -0.769, -0.082, -0.205, 2.162, 0.149, 0.331, -0.482, -0.325, 2.298, 0.966, -2.334, -0.246, 0.686, -1.109, -0.709, 1.56, 1.307, 0.485, -1.091, 0.729, 1.383, 0.936, -1.077, -1.817, -1.083, -1.087, -1.334, -0.471, -0.005, -1.471, -0.022, -0.992, -0.204, -0.819, -0.858, -1.194, 0.542, -1.206, -0.451, -1.671, 0.345, 0.858, 1.313, -0.579, -0.452, 0.364, 1.045, 2.187, 1.131, -1.007, 1.053, 1.859, -0.879, 0.573, -1.571, -1.936, -1.972, -2.366, 1.472, -1.592, 1.458, -0.139, -0.909, -0.457, -0.573, -1.05, -1.94, -0.485, 0.882, 0.534, 1.324, 1.373, 1.449, -0.178, 0.102, 0.647, 1.168, 2.574, 2.465, 1.076, 1.801, 0.103, -0.365, 1.618, 1.091, -3.403, -0.576, -1.502, 0.472, -0.623, 0.31, -1.057, 0.586, 0.099, 2.138, -0.674, 1.396, -0.952, 0.477, 0.046, 0.057, 0.572, 1.187, 0.64, 1.387, 0.945, 0.794, 0.368, 0.724, 1.542, 2.144, -0.128, 0.192, -0.027, 0.981, -0.93, -1.266, -1.963, 0.667, 0.489, -0.527, -0.44, -0.439, -1.718, -0.773, -0.819, 0.733, -1.43, -0.427, 0.285, 0.266, 0.169, 1.677, -0.853, 1.898, 1.971, 1.687, -0.093, -0.064, 1.242, 0.161, -1.744, 0.23, -1.861, 0.259, -1.472, -0.181, 0.72, -1.761, 0.529, -0.759, -1.699, -0.836, -0.085, 1.449, 0.788, 1.33, -2.155, 0.159, 0.171, -0.726, 2.211, 1.852, 0.5, 1.268, 0.371, 0.413, 1.32, -0.612, -0.836, 1.003, 2.183, -0.065, -0.123, -1.542, 0.676, -0.091, 0.46, 1.089, 0.761, 1.578, 2.387, 1.516, 0.823, 0.464, 0.011, -0.486, -0.147, -2.018, 2.254, 2.888, 1.217, 0.815, 1.789, 1.474, 1.152, 1.862, 0.754, 0.262, 0.074, -1.313, -1.911, -0.899, 0.366, 0.742, 0.762, -0.795, 1.053, 0.584, 0.511, -0.453, -0.889, -2.361, -1.548, -0.968, -1.931, 0.021, -0.002, 2.464, 0.675, 0.549, 0.364, 1.598, -0.559, -0.03, 0.6, -1.589, 1.001, -0.153, -1.388, -0.471, -0.722, 0.867, 0.211, 1.274, -0.195, 0.715, 0.589, 0.668, -0.28, -0.469, -1.378, -0.98, -1.941, -2.351, -1.436, 1.165, 0.191, 0.247, 0.479, 1.126, -0.335, 0.305, -0.456, -1.463, -0.101, -0.39, 0.115, -1.05, -1.183, -0.617, 1.801, 0.754, -0.122, 0.188, -0.409, 1.12, -0.442, -1.518, 0.48, -2.017, -1.874, -1.276, -1.472, 1.238, 0.027, 0.05, 2.03, 1.974, 0.223, -0.991, -0.318, -0.975, -0.986, 0.08, 1.605, -0.283, 0.225, -2.22, -0.147, 2.017, 1.52, 1.374, -0.743, -0.042, -1.85, -0.179, -1.124, -2.636, 0.376, -2.862, -0.297, -0.577, -0.954, -0.252, 0.103, -0.409, 1.86, 1.105, 1.277, -1.176, -0.996, 0.268, 1.441, -1.213, -0.364, -0.671, -2.2, -0.217, -1.215, -0.892, -1.461, -1.476, -0.946, 0.755, -0.568, -0.782, -1.04, -1.665, -0.205, -1.523, -0.791, 1.644, 0.882, 0.571, 0.751, 1.058, 0.625, -1.024, 0.287, -0.646, -0.605, 1.509, 0.092, -0.92, 0.436, -2.18, 1.265, -0.898, 1.065, 0.261, -0.175, -1.31, -0.621, -3.083, -0.807, 0.434, -2.113, -0.808, -0.295, -1.575, 1.746, 0.867, 0.5, 0.413, 0.802, -0.14, 0.459, -0.639, 0.102, 1.704, -0.751, -1.237, -2.404, -0.412, 0.509, -0.329, -1.769, -0.828, -1.684, -2.447, -0.991, -1.334, -1.333, -3.308, 0.668, -0.048, 1.326, 1.095, 0.302, 0.13, 0.867, -0.205, 0.321, 0.78, -0.667, -0.36, -0.149, -1.288, 1.876, 0.139, -0.33, 0.356, 0.181, -1.15, -1.159, -1.493, -2.979, -3.823, -1.313, -2.856, -0.839, -0.982, -0.303, -1.366, 0.503, 0.045, 0.185, -0.277, -0.604, -1.111, 2.292, -0.272, -1.174, -3.046, 1.613, -0.096, 0.351, -0.188, 0.505, -0.79, -1.185, 1.249, 0.335, -1.573, -0.222, -1.65, -1.714, -2.474, -1.412, -3.093, -0.734, -1.604, -0.527, -0.027, -0.38, -1.076, 0.183, 0.481, -1.013, 0.075, -0.111, 0.098, 1.943, -0.176, -1.197, 0.687, 0.802, -1.538, 0.728, 0.338, -1.13, 0.793, -0.094, 0.107, -1.431, -0.914, -0.852, 0.079, 0.161, -0.723, -1.554, 0.621, -1.668, -0.016, 0.296, -1.231, 0.3, -1.145, 0.567, -1.323, 1.028, 0.92, -0.475, 0.573, 0.092, 1.467, 1.581, -0.41, 1.057, 0.103, -0.048, 0.586, 1.114, 0.287, -0.25, 1.292, -0.139, -0.424, -0.243, -1.238, -0.967, 0.589, -0.799, -0.622, -2.633, -0.78, 0.723, -0.289, 0.941, -0.263, -2.502, 2.112, 0.217, -0.806, 0.35, -0.614, 1.138, -0.141, 3.753, 0.538, 1.543, 0.809, 0.269, -0.221, -1.08, -0.526, -1.125, -0.551, 0.049, -1.44, -2.392, -0.02, 1.199, 2.236, -1.375, -0.452, 0.776, 1.303, 1.606, 2.154, 0.425, 0.078, 1.071, 0.998, -0.151, 0.129, 1.442, 0.035, 2.012, 0.677, 1.131, -0.044, -0.315, -0.416, -0.588, -0.155, -1.69, -1.308, 0.31, -0.212, -0.625, -1.078, 0.654, 1.869, -1.024, 1.325, -0.583, 1.46, -0.261, -0.848, -1.247, 0.149, 0.655, 2.215, 1.458, -0.327, 2.212, 2.183, 1.085, 2.84, 1.299, 0.629, 1.862, 1.962, 0.387, 1.592, -0.155, 0.56, 1.067, 0.317, 0.538, 0.178, -0.256, -0.054, -0.494, 0.902, -0.4, 0.464, 1.131, 0.861, -0.595, -1.345, 1.207, 1.123, -0.206, -0.961, 1.797, 1.875, 1.725, 1.263, 0.178, 0.471, -0.461, 1.498, -0.463, 0.514, -0.378, 0.471, -1.023, -0.522, -0.435, -1.242, 0.68, 1.375, 0.58, 0.329, 0.087, -0.271, -1.759, 0.75, 0.324, -0.108, -0.196, 0.493, 0.924, -0.919, 0.15, -0.593, -0.529, -0.977, 0.817, -1.38, 0.402, -0.031, -0.468, 0.305, -1.058, -1.424, 0.807, -0.361, -0.952], [-1.669, -1.116, -0.408, -0.601, 0.187, -1.237, -0.09, 0.699, -0.363, 0.623, 0.701, 0.266, 0.514, 2.946, 0.294, 0.85, 0.207, -0.733, 0.61, -1.004, 2.027, 0.984, -0.007, 0.024, 0.648, 0.392, 0.046, -0.791, 0.153, -0.582, 0.036, 0.228, -1.543, -0.06, 1.206, 0.127, 0.256, 0.972, 0.281, 0.285, 1.267, 1.527, 0.856, -0.389, 0.332, 2.435, 0.406, -0.189, -0.565, -0.469, 0.226, 0.18, -0.244, -1.171, -1.129, 1.49, 0.615, 0.144, -0.013, 1.486, 0.927, 0.261, -0.104, 0.245, -0.964, -0.105, 1.552, 0.083, 0.52, -0.761, 0.944, -1.067, 1.703, 0.439, 0.465, 0.185, -1.106, -1.04, 1.745, -1.38, 0.192, 0.575, -0.297, -0.852, -0.062, -0.273, 0.411, 0.601, -0.745, -0.191, -1.219, 0.231, -1.472, -0.015, -0.089, -0.326, 0.115, 1.294, 0.591, -0.489, -0.428, -0.14, 0.93, -1.217, -0.158, -1.449, -0.912, -0.441, 1.759, 0.663, 0.66, 1.668, -0.335, 0.288, -1.51, -0.962, 1.525, 0.958, -0.867, -0.731, -0.844, -1.26, 1.425, -1.97, 0.499, -0.854, -0.375, -0.457, -0.335, 1.437, -1.566, 1.1, -0.968, -1.231, 0.2, -0.249, -0.962, 0.693, -1.261, -0.362, 1.028, -1.775, 1.675, 0.67, 1.973, -1.27, -0.195, 0.18, -1.309, -0.477, -0.421, 0.408, 0.717, 0.164, -1.403, -2.628, -1.188, 1.738, -1.494, -1.052, 0.001, -1.109, -0.576, 0.32, 0.531, 0.162, 0.635, -0.018, -1.292, 1.272, 1.301, 0.765, -0.451, -0.165, 0.955, -0.097, 1.015, 0.942, -1.047, -0.841, 0.468, -1.623, -1.665, -1.405, -2.718, -1.114, -2.582, -0.179, 0.05, -0.337, 1.265, 0.554, 1.314, 0.197, 0.045, -0.071, -1.117, 1.106, 1.956, -0.101, 0.079, -2.118, -2.026, 0.235, -1.202, 1.345, -0.094, 0.856, -2.016, -1.074, -3.471, -0.944, -3.222, 0.242, -0.413, -0.974, -0.057, 0.607, -0.831, 1.28, 1.683, 1.684, 0.735, 0.923, -0.79, 1.53, 0.826, -0.27, -0.232, 1.341, -1.097, 2.231, 0.348, 0.899, 0.993, 0.77, 0.503, 0.2, -2.24, -3.463, -1.765, 0.015, -0.45, 1.472, 0.856, 1.148, 0.987, 2.185, 0.593, 2.446, -1.137, -0.266, -1.565, -0.801, 0.151, 0.859, 0.422, 1.175, -1.013, 0.581, 0.872, 0.623, 0.254, -1.32, 1.439, -0.159, -1.634, 0.646, 0.439, 0.197, 0.324, -0.145, 0.136, 2.076, 1.937, 0.447, -0.432, -1.805, 0.698, -0.404, 0.364, -0.082, 0.304, 0.77, 0.887, -1.64, 0.654, -0.032, -0.434, 0.398, 1.086, 0.418, 2.283, 1.155, -0.278, -0.47, -0.47, 2.711, 0.921, 1.144, 0.666, 1.796, 0.053, -0.56, 0.538, 0.776, -0.327, -0.782, 0.156, 0.328, -0.164, 0.048, 0.916, -1.595, 2.275, -1.029, 0.31, 0.385, 0.624, 2.2, 2.737, -0.277, -1.561, -1.697, -0.266, -0.297, 0.497, 0.915, 0.399, -1.347, 1.182, 0.569, 0.47, 0.556, 0.93, -0.087, 1.163, 0.745, -0.163, 0.783, -1.068, 0.429, -0.832, 1.738, -0.23, 2.412, 1.59, 1.259, -1.306, -1.031, -1.086, -2.244, 1.021, 0.881, -1.078, -1.437, -1.588, 0.769, 0.437, 1.203, 1.604, 0.011, 1.291, 1.35, -0.237, 0.894, -1.125, 0.774, -0.802, -0.265, -0.281, 0.303, 1.035, 0.234, 1.561, 1.463, -0.053, -2.493, -2.798, -1.263, -0.582, 0.285, -0.927, -0.667, -2.731, 0.952, 0.858, 0.505, 0.23, -1.664, 2.184, 0.81, 0.706, 0.83, -0.579, -1.802, 1.229, 1.156, -1.18, -0.366, 0.48, 0.256, 1.514, 0.565, -1.876, -1.663, -0.92, 0.27, 0.02, -0.321, 0.375, -0.93, 0.978, -0.311, -2.066, 0.99, 0.065, -2.816, -0.349, -0.617, -0.915, -0.471, 0.208, 0.175, 0.175, 1.761, -0.061, 1.052, -0.168, -1.28, -0.315, 0.653, -1.773, -1.086, -2.823, -0.986, 0.104, 0.838, 0.279, 1.464, 2.509, 0.065, 1.403, -2.071, 0.781, -0.887, 0.61, -1.082, -0.419, -0.012, -0.588, 0.654, 0.006, 0.423, 0.249, 0.832, 0.839, 1.677, -0.599, -1.348, -0.157, -0.89, -0.875, 1.152, 1.192, 1.344, 0.491, 1.167, 1.146, 0.328, 1.431, -0.639, -1.441, -0.487, -1.753, 0.454, 0.025, 1.029, 0.287, 0.238, 0.288, 1.902, -1.27, -2.51, 0.23, -1.504, -1.982, 0.547, -2.123, 0.979, 0.393, -0.015, 0.977, 1.482, 1.141, 2.243, 0.168, -0.557, -0.547, -0.118, 0.828, -1.731, -1.279, 0.022, -1.099, -0.576, -0.493, -2.447, 0.607, 0.444, 0.363, 0.27, -0.271, -1.61, -0.575, 0.04, -1.334, 0.281, 0.372, -1.132, 0.401, -0.537, -0.188, -1.636, 1.459, -0.98, -1.651, -0.158, 0.919, 0.683, 0.677, 0.253, -0.769, 0.342, 0.071, -0.9, -0.357, -1.158, 0.061, -0.144, -0.221, 1.865, -0.565, -0.462, 0.835, -0.831, 1.959, 0.428, -0.949, 0.894, -1.765, -0.811, -2.056, -1.341, -0.832, -0.648, -1.403, 0.145, 0.155, 0.141, 0.022, -1.927, -0.202, 0.518, -0.651, 0.242, -0.21, 0.52, 0.003, 0.528, 0.545, -1.247, -0.316, -0.436, 0.14, -0.608, 0.325, -1.574, -1.328, 0.426, -0.575, -0.813, -0.049, -0.573, -0.116, 0.035, -0.819, 1.028, 1.183, 1.601, 0.847, 0.205, -1.913, -0.835, -0.255, -0.953, -0.13, -0.286, 0.063, -0.057, 0.412, 1.16, -1.08, 0.057, 0.345, -0.492, 0.774, 0.399, -2.845, -0.148, 0.554, -2.649, 0.357, 0.521, 1.422, 0.141, 0.515, 0.393, -1.591, 0.547, -0.207, 0.595, -0.36, -0.135, -1.811, 0.027, 0.194, -0.143, -1.442, -0.24, 0.002, -0.077, 0.368, 0.031, 1.146, -0.363, -0.303, -0.167, -0.85, -0.62, -0.461, -0.662, 0.253, -1.131, -0.998, -1.388, 0.253, -0.927, 0.022, 0.359, 0.504, 0.653, 0.018, -1.55, 0.298, -0.968, -1.504, 0.515, 0.282, -1.2, 0.918, -1.046, 0.665, -0.403, 0.844, -0.93, 1.075, 0.397, -0.334, -0.571, -0.724, -0.076, -1.115, 0.847, -0.005, -2.14, 0.055, -1.3, 1.184, -0.02, 0.074, -1.567, -0.961, -0.465, 0.444, -1.164, -0.293, 0.467, 0.009, 0.35, 0.233, 0.919, 1.836, -1.096, 0.013, 0.204, -1.224, -1.909, -0.603, -1.049, 0.521, -0.498, -0.604, -0.92, -2.759, 0.818, 0.821, -1.098, 0.452, -1.713, -0.417, 0.034, 0.445, -2.077, 0.027, -0.967, 1.656, -0.797, 0.329, -1.118, -0.123, -0.32, 0.557, -0.56, -1.225, 1.01, -2.246, -1.325, 0.008, 0.681, 0.119, -0.239, -0.385, -0.148, -0.221, 0.829, -2.126, -0.069, -1.611, 0.716, 0.028, -1.147, -0.588, 0.328, -0.975, 0.913, -0.023, 0.438, -0.292, 0.736, -1.433, 1.497, -0.12, 0.202, -0.587, -0.288, 1.037, -0.632, -1.215, 0.541, 0.725, -0.145, 1.028, -0.641, 1.726, 0.953, -0.931, 0.089, -0.117, -1.032, 0.702, 0.729, 0.395, -0.097, -0.279, 1.686, -1.817, 1.158, -0.149, 0.955, -0.052, 0.796, -2.268, 0.413], [0.464, 0.593, 0.1, -0.192, -0.263, 0.377, -0.218, 0.237, 0.744, 0.425, 1.586, -0.445, 0.276, -1.151, 0.481, 0.511, -0.406, -2.572, -0.74, -0.705, 1.573, 0.068, 0.043, 0.318, 2.683, -0.06, -1.194, -0.887, -1.164, -0.698, -0.38, 0.971, -1.679, 1.426, 0.898, 1.377, 0.478, 0.096, 1.381, 1.182, -0.598, 1.185, -1.458, -0.774, 0.976, -0.16, -0.078, -0.709, 0.203, 0.196, 0.904, -0.21, -0.148, -0.003, -1.009, -0.239, 0.868, 0.532, 2.285, 2.31, 0.839, 1.045, 0.494, 0.917, -2.448, -0.659, 0.566, 1.268, -1.186, 0.137, -0.713, -0.431, 1.246, 1.34, -0.829, -0.063, -0.142, -0.592, -0.554, -0.14, -0.116, -0.353, 1.684, -1.048, -1.464, 1.019, -0.083, 1.261, -1.269, 2.858, -1.626, -0.345, -0.187, -2.17, 2.077, 0.654, 0.403, -0.013, 2.885, 0.268, -0.591, -0.761, -1.412, 0.004, 0.129, -1.164, -0.942, -0.152, -0.739, -0.411, -0.687, -2.19, 0.969, -1.156, -0.184, -0.049, 1.133, 0.671, -0.759, -1.589, 0.84, -0.685, -0.422, 1.013, 1.716, -0.444, 1.175, -0.533, 1.533, -0.447, 0.176, -1.194, -0.323, -0.958, -0.319, 1.181, -0.932, -0.425, -0.837, -0.175, 0.212, 0.569, 2.5, 0.488, 1.407, -1.16, -1.459, 1.441, 2.302, 0.854, 1.041, 1.446, 2.114, 0.935, 1.682, 2.209, 2.381, 3.148, -0.368, -0.51, 0.985, -1.486, -1.263, -1.341, -1.162, -0.507, -1.098, 0.811, -0.691, -0.059, 0.468, 2.648, -1.187, -0.163, 2.289, 1.523, 0.501, 0.928, 1.909, 0.832, 0.791, 0.541, 1.002, 0.438, 0.788, -0.442, 1.079, 0.087, -0.664, 0.422, 0.448, -0.28, -0.198, 0.623, -1.315, 0.173, 0.971, 0.259, -0.556, 0.51, 0.606, 0.293, -0.321, -2.172, 0.274, -0.851, 1.106, -0.577, -0.103, 1.847, 0.805, -0.143, 0.816, 2.162, 1.952, 1.198, -0.235, 1.289, 3.364, 0.063, 2.561, -1.077, -1.146, -0.326, -0.546, 1.832, -2.391, -0.419, 1.29, -0.086, 1.453, -0.045, 0.777, 0.154, -0.451, -0.265, 0.751, -1.263, 0.019, 0.923, 0.718, 0.344, -0.331, 1.843, -0.53, 1.871, -0.154, -0.905, 2.823, -0.054, -1.096, -0.182, 0.476, 0.086, -0.548, -1.39, -0.296, 1.31, 0.166, 0.356, 0.002, 1.345, 0.73, 2.074, -0.478, 0.646, -0.541, -0.227, 0.229, 0.646, 1.072, 2.483, 0.931, -0.602, -0.703, 0.543, -1.224, 0.638, -0.52, -1.432, 0.291, -0.542, 0.641, -0.756, -0.738, 1.254, -0.676, -1.919, 0.944, -0.418, 0.183, -1.12, 0.344, -1.78, -0.729, -2.237, 0.599, -0.323, -1.5, -0.004, -1.008, 2.672, -0.238, 0.86, 0.848, 0.691, 0.316, -0.773, -0.342, -3.21, -0.548, -1.501, 0.02, 0.626, -0.816, -1.688, -1.578, -1.69, -0.71, -1.142, -0.67, -0.412, -0.909, 0.613, -0.729, -0.464, 0.138, 0.945, 0.323, -1.088, -1.193, 1.538, 1.257, 1.548, -0.282, 0.037, 1.413, 0.749, -0.591, 0.609, 0.905, -0.569, -0.983, -0.622, -3.254, -0.703, 0.269, -0.671, 1.192, -0.365, 1.582, 0.221, -1.511, -1.646, -0.286, -2.197, 0.337, 1.039, -1.069, -0.367, -1.017, -0.856, -0.885, 0.057, 0.354, 0.125, 0.159, 0.574, -2.272, -0.979, -1.714, -1.195, 0.104, -1.468, -1.313, 0.397, -0.774, 0.981, -0.189, -1.441, -1.378, 0.089, 0.632, 1.358, -0.869, -0.689, -0.51, -2.091, 0.236, -0.184, -0.756, -0.465, -1.094, 0.767, 0.067, 1.302, -0.441, -0.427, 0.362, -0.141, -0.19, 0.585, 0.104, 0.022, 0.835, 0.028, -0.556, -1.087, -0.506, -1.095, -1.308, 0.316, -1.549, -2.196, -2.208, -1.287, -1.926, -0.385, -1.466, -0.983, -1.39, -0.196, -0.587, -0.894, 1.394, 0.989, -1.079, -0.175, -0.485, -1.549, -1.612, 0.044, 0.887, 0.914, 0.666, -0.334, -0.374, -0.352, -1.871, 0.21, -0.524, 0.472, -0.862, -0.996, -0.2, -0.471, -0.417, -0.627, -0.839, 0.707, 0.662, 0.484, 0.168, -0.485, 0.688, -1.202, -0.933, 0.601, -0.263, -1.542, -0.402, -1.144, -2.527, -0.716, -1.733, -1.634, -2.176, 0.285, -1.583, -0.111, 0.06, 0.327, 0.328, 0.221, -0.932, 1.975, 1.008, 0.04, 1.215, 0.424, 1.408, -0.036, 1.326, -0.143, -0.454, 0.175, -2.109, -1.535, -1.208, -0.912, -1.667, 0.02, 1.091, 1.791, 0.003, -0.137, -0.328, -1.297, 0.339, 2.345, 0.887, -0.278, -0.048, -0.822, 0.284, -0.678, 0.456, 0.66, 0.701, 1.71, 2.564, -0.573, -1.204, 0.487, -0.186, -0.468, -0.677, -1.243, -0.731, -0.269, 1.264, 0.325, -1.437, -0.025, 2.42, 0.477, 2.629, 0.794, 0.82, 0.474, -0.494, -0.062, 0.226, 1.473, -2.287, 1.269, 0.825, 3.894, 0.946, 2.266, 2.492, 0.188, -0.284, -1.884, -1.057, 0.747, -0.442, -0.328, -0.414, 2.338, 2.996, 0.446, 0.478, 1.319, 1.212, 1.01, 2.329, -0.672, -0.402, 0.562, -0.801, 0.095, 0.307, -0.439, -0.129, 2.119, 2.766, 2.05, 1.746, 1.385, 0.667, 0.226, 0.169, -0.254, -0.13, -0.169, 0.154, 0.679, 0.312, 0.459, 2.252, 1.881, 0.743, 1.745, 1.59, 0.202, 1.894, -1.074, -0.072, 1.441, 1.027, 0.134, 1.245, -0.443, 1.239, -0.033, 0.569, -0.959, 0.752, -0.244, -0.43, -0.175, -0.707, -0.885, 0.44, -1.4, -0.537, -0.134, 2.565, 0.427, 2.373, 1.42, 1.309, 0.644, 0.988, -0.921, 0.083, -0.109, -0.82, 2.277, 0.025, -1.822, 1.766, 1.027, 2.08, 0.098, 0.613, -0.331, 0.707, 0.378, -0.305, -0.562, 1.448, -0.579, 1.204, 1.956, -0.578, 0.605, 2.389, -0.853, -0.977, 0.471, -0.268, 0.867, 2.197, -0.776, -1.115, -0.123, 0.374, -0.883, -1.162, 1.196, 1.266, 0.924, 0.938, 0.216, -0.238, 1.182, -2.657, 1.207, 0.634, 0.39, -0.574, 0.753, -0.658, 1.519, -0.596, 0.81, 0.365, -0.458, -0.339, -1.203, -2.122, 2.197, 0.983, -0.847, 0.948, -1.165, -0.617, 1.288, -0.086, -0.115, -0.191, 0.484, -0.455, 1.479, 0.485, 1.043, -0.907, -0.988, -0.799, -0.881, -2.954, 1.228, -2.012, 0.04, 1.457, -0.994, -0.246, -0.566, 1.119, -0.769, -0.286, -0.644, 0.029, 0.538, 0.383, -0.904, 0.053, 0.562, 0.978, -0.076, -1.244, 0.843, 1.878, 1.626, 0.164, -0.716, -0.145, 1.074, -0.964, 0.596, -1.014, -0.644, 0.171, 0.648, 0.106, -0.272, 0.759, -0.08, -0.451, 0.254, -0.602, 0.453, 0.954, -0.24, 1.186, -0.683, -0.347, 0.214, -0.558, -0.557, -0.909, -0.929, -0.315, 0.19, -0.714, 0.093, 2.446, 3.372, 0.795, -2.823, 0.821, -0.722, 1.116, -0.389, -1.364, -0.327, 0.336, 1.021, 2.009, -0.925, 1.781, -0.661, 0.653, -0.486, 0.228, 1.614, 2.303, 0.587, -1.457, -0.952, -1.122, 0.941, -0.556, 0.049, 1.818, -0.677, -0.871, -1.274, -0.837, 0.17, 0.865, 0.36], [0.669, 0.621, 0.237, -0.015, -1.839, 0.197, 0.126, -0.339, -0.04, -0.22, 0.019, 0.159, -1.101, -0.387, -0.259, 0.399, 1.226, -1.114, 1.457, 0.745, 0.367, 1.015, 0.696, 0.706, 0.589, -0.253, -1.21, -0.051, -0.119, 0.17, 0.875, -0.081, -0.188, 0.863, 0.702, 0.614, -0.314, -0.318, 0.512, 0.92, 0.82, 0.368, 0.844, 0.094, 1.859, 0.635, 0.397, 0.852, 0.005, -0.083, 0.384, 0.794, -0.14, -1.115, 0.038, -0.921, -0.182, 0.159, -0.329, 0.18, 0.333, -0.054, -0.39, 0.707, -0.89, 0.31, 0.345, -0.903, 0.521, -1.587, 0.149, -0.791, -1.967, -0.605, -0.133, 0.424, -1.073, 0.769, -1.354, -1.796, 0.611, 1.138, 0.743, -0.984, -1.127, 0.154, 0.783, 1.964, -0.091, 0.012, 0.057, -0.78, -1.564, 1.292, -0.252, -0.134, -0.136, 0.067, 0.252, -0.544, 0.016, -0.205, -1.347, -0.155, -0.663, 0.656, 2.968, 0.022, -1.697, -0.252, 0.663, 0.695, 1.037, 1.711, -1.145, -0.782, -0.284, 0.869, 0.703, 1.59, 1.239, 1.383, 1.677, 0.755, -1.638, 1.254, -0.591, 0.391, 0.933, -0.675, -0.33, 1.085, -0.63, 0.095, -0.794, -1.381, -0.228, -2.058, 1.386, 1.092, -0.741, -1.114, 2.133, -0.208, -1.464, 0.479, 2.407, 0.556, 0.193, -0.073, 0.082, 0.705, 0.194, -0.56, 0.696, -0.404, 0.298, 0.748, 1.202, 1.056, 0.107, -1.311, -0.498, 0.588, 2.006, 0.489, 0.041, -0.869, -0.12, 0.111, 0.022, -1.473, 1.632, -1.221, 0.205, 0.946, -0.278, -0.55, -1.644, 1.104, 0.408, -1.671, -0.737, 0.354, -0.392, 1.019, 0.899, 0.765, 1.074, 1.339, -0.464, -0.137, -1.084, -0.328, 0.194, 0.831, -0.796, 0.233, 0.701, 1.529, -0.322, 0.342, 0.955, 1.093, -1.143, 0.758, 0.451, -0.393, -0.157, 0.605, -1.544, -1.273, 0.321, -0.387, 2.228, 0.931, -1.599, -0.146, 2.191, -0.216, -0.295, 0.31, -1.412, -1.144, -0.073, -0.829, -1.248, -0.367, -0.219, 0.26, 0.994, -0.225, 0.939, 1.887, -0.782, 0.035, -2.837, 0.224, -1.819, -1.011, -0.132, 1.416, 0.169, 1.951, 0.087, 0.614, -0.587, -0.349, -0.594, -0.89, 1.316, 0.905, 0.4, 0.29, 0.7, -0.039, 2.512, -0.749, 1.195, 0.587, 0.458, -0.411, -1.484, -0.95, -1.218, -2.623, -2.921, 0.994, 1.706, 1.175, -0.478, 0.942, 2.509, -1.13, -0.067, 0.734, -1.782, 1.088, -1.146, 0.271, -1.05, -0.615, -1.547, -0.279, -1.89, 0.428, 0.726, -1.59, -0.324, -1.091, 0.081, -1.536, -3.137, -4.571, -0.68, 2.297, 2.343, 2.824, 1.358, -0.712, 1.633, 0.607, 0.891, 0.255, 0.452, -1.624, 0.295, 0.309, -1.397, -0.097, -1.923, 1.353, 2.092, -0.335, -0.104, 0.797, -1.16, -1.348, -0.536, -2.102, -2.368, 0.269, 1.044, 2.577, 1.151, -0.313, 0.064, 1.672, 0.584, 0.123, 0.436, 1.29, -1.118, 0.214, -0.297, 0.498, 0.037, 0.01, -0.112, -1.582, -0.942, -1.27, -1.872, -2.999, -2.16, -1.248, -1.137, -2.302, -0.521, 2.161, 1.51, 1.081, 1.415, -0.416, 0.348, -0.619, 1.664, 0.414, 1.416, 0.469, 1.232, 0.77, 0.486, 0.758, -0.12, 0.568, -0.785, -0.906, 1.445, -0.863, -1.852, -1.575, -0.786, -2.156, -1.645, 0.814, 1.326, 1.379, 2.361, -0.281, 0.173, -0.84, 1.086, -0.128, -1.701, 1.141, -1.88, 0.339, 0.122, -1.985, -0.021, 0.954, 1.634, -1.114, -0.288, 0.047, -0.46, -0.879, -0.148, -0.592, -0.138, -2.111, 0.872, -0.479, 0.237, 0.62, 1.347, 1.191, 1.614, 1.322, 0.872, 0.528, -0.271, -1.575, -0.905, -0.209, 0.696, 0.534, 0.647, -2.188, -0.718, -0.618, 0.821, -0.028, -1.433, 0.102, -0.837, -0.073, 0.895, -1.483, 1.316, -0.043, 2.079, 0.57, 1.487, 2.457, 0.167, 1.207, -1.202, -1.059, -1.697, 0.607, 0.018, -1.966, 0.576, 0.905, -0.945, -1.096, -0.696, -0.821, -1.377, -0.502, 0.266, -0.803, -1.629, 0.233, 1.335, 1.165, -2.828, 0.92, 2.331, 2.465, 1.716, 0.307, 1.394, -0.671, -1.109, -0.983, -0.31, -1.867, -1.343, 1.488, -1.596, 0.267, -0.264, 1.09, 1.208, 1.288, -0.309, -0.682, 1.89, 0.352, 0.435, 1.433, -0.214, 0.886, -1.127, -0.101, 1.242, 1.053, 1.428, 0.93, 0.777, -2.156, -0.409, -0.809, 0.066, 0.636, -0.437, -0.681, -0.135, -0.291, 0.619, -0.648, 0.404, 0.462, -0.655, 2.088, -0.389, 1.031, 0.472, 0.224, 0.088, 1.872, 1.213, 1.206, 1.521, 3.042, 1.237, -0.398, -0.526, -0.276, -1.013, -0.999, -0.319, -0.712, 0.94, 1.126, 0.281, -0.102, 0.457, 0.472, -1.654, 0.539, -0.695, 0.213, 0.901, 0.148, 0.089, 1.085, 2.094, 0.543, 2.288, 0.972, 1.192, 0.981, -2.717, -1.477, -0.121, -0.071, 0.72, -1.445, -0.13, 1.036, 1.694, -0.083, -1.139, 0.178, 1.189, -1.539, 0.026, -1.384, 2.477, -1.67, 1.528, -0.256, 1.051, 0.453, -0.424, 0.723, -0.244, -0.066, 1.193, -3.362, -1.168, -1.635, -0.987, -0.66, 2.305, 0.684, 1.125, -0.28, -0.393, -1.94, 1.282, 0.552, -1.474, -0.679, -0.392, -1.414, 0.386, -0.156, 0.346, 0.145, 0.935, 1.371, 1.294, 0.725, -0.127, 0.54, 0.386, -0.594, 0.109, -0.25, -1.625, -0.258, 0.959, -1.63, -1.365, 0.163, -1.161, 0.834, 0.247, 0.409, 0.939, 1.241, -1.304, 0.041, -0.843, 0.812, 1.549, 1.466, 1.28, 0.819, 0.91, -0.946, -0.307, -1.145, -1.235, -1.365, 0.716, 1.971, -2.902, -0.734, 0.316, 1.278, 1.427, -0.313, 1.654, -1.853, 1.666, -1.629, 0.671, -0.138, -1.053, -0.648, 1.409, -0.97, 0.016, -1.368, -1.224, 1.722, 0.253, 1.806, -1.091, -0.686, 1.923, -0.865, 0.736, -1.448, 2.821, -0.382, 2.23, 0.11, -1.735, -0.029, 1.336, -0.764, 0.228, -0.111, 0.189, -0.029, 0.369, 1.6, 0.362, -0.765, -0.05, 1.138, 0.297, -0.118, -0.623, -0.033, -0.975, -0.029, -0.319, -0.362, -1.107, -1.682, -0.072, -0.35, 0.903, -0.712, -0.982, 0.917, -0.941, -1.858, 1.802, -0.166, -1.602, -0.805, -0.016, -0.06, 0.1, -0.342, 0.209, -0.183, -0.121, -0.19, -2.374, 0.056, 0.928, -0.144, -0.796, -0.964, -1.682, 0.1, -1.691, 0.065, 0.044, -1.706, 0.595, -0.096, -2.092, -1.688, -0.971, -0.211, -1.762, 0.488, 1.115, -0.06, -0.519, -0.247, 0.781, -0.465, 1.626, 2.162, -0.97, 0.295, -0.43, -0.836, -0.343, -1.533, -1.376, -1.09, -0.213, 1.754, 0.515, -0.421, 1.1, -0.698, 0.861, -0.872, -0.688, 0.134, 1.144, -0.844, -0.126, -0.176, 1.095, -1.359, -0.859, 0.351, 0.373, -0.418, 0.048, 0.539, 1.054, 1.48, -1.178, 0.826, 0.088, -1.141, 0.312, 1.485, 0.646, -0.146, 1.203, -0.415, -0.574, 0.033, -0.435, -1.862, 1.22, 0.923], [-0.224, 1.518, -0.544, -0.191, 0.933, -0.991, -1.145, 0.074, -0.357, 0.168, -0.451, 0.522, -0.096, 0.578, 1.047, -0.122, 1.47, -0.669, 0.536, -1.064, -1.938, -1.156, 0.001, -0.117, -0.718, -0.562, -1.218, -0.112, -0.881, -0.077, 1.543, 0.14, -0.514, -0.99, -0.255, -0.193, -0.466, -0.819, -0.353, -0.084, 0.482, -1.433, 0.831, -1.382, -1.64, -1.041, 0.454, -1.239, 1.383, -0.078, 1.397, 0.474, 0.448, -1.066, 0.334, 0.777, 0.402, 0.526, 0.606, -1.485, 2.383, -0.094, 0.618, -1.801, 0.131, 0.31, 0.434, 0.268, -1.703, 0.724, -0.836, -1.932, -1.619, -0.094, -0.089, 0.086, 0.412, -0.776, -1.56, 0.838, -1.14, -0.389, 0.694, 2.643, -1.424, 2.209, 0.55, 0.677, -1.875, -0.707, -0.258, -0.046, -1.401, 0.461, 1.011, 0.501, 0.813, 2.44, 1.114, 0.172, 3.186, 0.653, 0.332, -0.818, 0.418, -1.705, -0.594, -0.566, -0.18, -1.282, -1.341, 1.555, 0.75, 1.125, 1.897, -1.33, 1.876, -2.123, 0.218, 1.38, 2.372, 1.797, 1.415, 1.294, 0.139, -0.305, 0.781, -0.091, -0.076, -0.205, 0.567, 0.282, 0.3, 0.752, -0.62, -0.01, -0.463, 0.223, 0.215, -1.439, -0.331, 0.35, 0.846, -0.215, 1.056, 0.281, 0.146, -1.284, -0.228, 1.288, -0.235, 0.527, 0.238, 0.756, 1.859, -0.84, 1.006, -0.909, 1.944, -0.498, -0.292, -1.299, -1.546, -1.404, 0.604, -0.738, 1.418, 0.005, 1.18, 0.501, -1.124, -0.301, 1.486, 0.409, 1.463, 1.69, 0.524, 2.388, 1.387, 0.222, 0.237, -1.015, 1.924, 0.058, 0.485, -0.021, -1.261, 1.107, -0.101, -1.239, 0.655, -0.773, -0.776, -1.923, -0.691, 0.23, 0.906, -0.235, 1.529, 0.182, 1.67, -1.136, 2.857, 1.475, 0.986, -0.562, -0.237, 1.064, 0.925, 0.411, 0.804, 0.129, 1.619, -0.78, 1.484, 1.344, 0.226, 0.897, -0.569, -0.82, 0.601, 0.442, -0.103, -0.685, 0.309, -0.481, -0.925, 1.186, -0.09, -0.237, -0.161, 1.452, 1.338, -0.017, 1.783, 0.992, 0.903, 0.541, 2.216, 1.531, 0.275, 1.011, -0.796, 0.438, -1.323, -0.866, -0.599, -0.805, -0.679, -0.417, 0.648, -1.764, 0.182, 0.406, 1.968, 1.131, 2.29, 0.251, 1.027, 0.068, 1.306, 0.772, 1.686, 1.342, 0.323, 0.437, 1.322, 2.456, 1.107, 1.64, 1.283, -0.363, 1.645, -0.95, 0.221, -1.731, -1.389, 1.593, -1.218, 0.576, 1.233, -1.002, 1.988, -0.707, -0.172, -0.794, -1.146, -1.638, 0.282, -0.967, -0.253, -3.147, -0.957, -0.569, -0.678, 0.706, 0.816, -0.421, 0.367, 0.245, 1.719, -1.099, -0.354, -0.307, -1.348, -0.863, 0.845, -1.131, -2.226, -0.592, 0.551, 0.864, 1.802, -1.824, -0.799, -3.7, -1.465, -3.316, -2.429, -2.44, -3.283, -2.61, -3.927, -0.562, 0.723, -0.261, 0.776, -0.734, -1.202, 0.341, 0.054, -0.961, -1.063, -0.147, -0.97, 0.629, 0.678, -0.532, 1.801, 2.137, -1.935, 0.258, -2.375, -4.171, -3.243, -3.321, -2.766, -3.19, -2.533, -3.793, -0.692, -0.726, 1.316, -0.575, -0.649, -2.156, 0.849, -2.024, -2.209, -0.653, -0.227, -0.616, -1.456, 0.343, -0.284, 1.708, 0.05, 0.899, 0.891, -0.457, -3.787, -2.711, -3.238, -3.063, -1.636, -0.828, -0.98, -0.251, -1.94, -1.84, 0.2, -0.005, 0.289, 0.676, -0.534, -0.614, -1.868, 0.176, 0.173, 0.763, 1.57, 2.705, -1.608, 1.389, 1.173, -1.304, -1.572, -1.229, -3.253, -3.695, -2.268, -0.985, -0.356, -0.349, 0.02, -1.029, -0.648, -0.807, 0.931, 0.582, 0.3, -1.05, -0.033, -1.193, -0.923, 0.775, 0.848, 1.521, -1.618, 1.505, -1.104, -1.532, -0.16, 1.906, -0.731, -1.544, -1.207, 1.271, -0.957, 0.29, 0.012, -0.643, 0.185, 1.247, -1.89, -1.342, -0.407, -1.41, -0.146, 1.409, -0.323, 0.293, 0.68, 0.425, -1.622, 0.419, -0.353, -0.356, 1.109, 0.42, -0.909, 1.091, -1.15, 0.462, -0.147, 0.454, -1.008, 0.482, 0.536, -1.475, -0.092, -0.656, -0.639, 1.75, 0.354, 0.498, 1.339, 1.266, 2.017, 1.071, 1.203, 0.941, 1.88, 0.97, -1.291, 0.501, -0.308, 1.299, 0.538, -0.166, 2.333, -1.381, 0.606, -0.472, 0.33, 0.974, -1.996, -0.118, -0.115, -0.825, 0.457, 0.868, -0.309, 0.699, 0.048, 0.663, 0.096, 0.871, 0.934, -0.301, 1.524, 1.535, -0.515, -0.454, -0.464, -1.186, 1.911, 0.534, 1.148, -0.079, 0.819, 0.616, -1.067, -0.4, -0.477, -0.616, 0.017, 0.589, -1.083, -0.254, 0.699, 0.201, 0.747, -0.917, 0.613, 1.073, 0.022, -0.113, 1.161, 1.154, 1.51, 1.008, 0.094, -0.384, -0.565, 0.947, 1.47, 0.278, 1.406, 1.308, -0.959, -0.016, 1.4, -0.927, -0.839, 0.239, 1.415, 1.059, -0.101, 1.261, 0.291, 0.532, -0.752, -0.075, 0.167, -0.744, 2.209, 1.316, 0.692, 0.075, 0.122, 0.111, -1.657, 1.281, 1.166, 0.808, -0.167, -0.453, 0.836, 0.624, -1.265, 1.936, 0.208, 1.386, -0.816, -0.282, -0.92, -1.08, -0.067, -0.908, 0.406, 2.274, 0.856, 0.963, -0.96, 0.22, 0.114, 2.265, 2.132, -1.329, 0.175, -0.909, 0.079, 0.33, -1.598, -0.854, 1.132, 0.393, 0.85, -0.673, 0.466, -1.252, 0.152, -0.973, -0.144, 0.098, 0.058, -0.133, -0.132, -1.562, -0.936, -1.134, 0.441, -1.473, -1.572, 2.108, 0.11, 1.38, -1.187, -0.725, 2.499, 0.415, 1.217, 0.303, -0.217, -0.56, 1.273, -1.065, 0.358, -1.271, -0.457, -0.153, 1.432, -1.058, -1.073, 0.649, 0.393, -0.802, 1.641, 1.599, 2.845, -0.996, 1.87, -2.561, -0.01, 0.819, 1.356, 2.139, 0.106, -0.354, 1.058, 1.755, -1.174, 0.759, -0.763, -1.368, -1.23, 0.809, -1.057, 0.267, -0.808, 0.195, 0.487, -0.212, 0.69, 0.35, 0.903, -1.069, 0.322, -0.921, -0.232, 0.418, 1.124, 0.124, -0.608, 1.481, -0.003, 0.669, 3.286, 0.466, -1.591, 0.742, 0.636, -0.527, 0.035, -0.175, 0.169, -0.223, -0.807, -2.033, -0.65, -2.066, 0.816, -0.233, -1.061, 0.022, -0.64, -0.906, -1.043, 1.156, -0.855, -0.823, -0.604, -0.734, 0.487, -1.292, -0.566, -1.08, 2.111, 0.263, 0.937, 2.331, 0.819, 1.045, 2.413, 0.737, -0.373, 0.422, 0.556, -1.208, -1.297, -0.732, -1.542, -0.682, 0.559, -2.138, 0.529, 0.505, -0.978, 0.567, -1.472, 2.05, -0.743, -0.196, 0.704, 1.143, 2.403, -1.33, 1.163, -1.118, -1.67, -0.266, 0.155, 1.353, -0.892, 0.053, -1.09, -0.272, -1.025, 0.501, 0.91, 1.194, -0.185, 0.241, -0.294, 0.56, -1.457, -1.034, 0.639, -2.752, -0.034, -0.356, 0.948, 2.378, 0.751, -1.382, -0.645, -1.267, 1.204, 1.243, 1.033, -0.792, -1.396, 0.156, -0.531, -1.288, 0.978, -0.989, -1.486, 0.452, 1.041, -0.482, 0.018, 0.243], [-1.396, -0.468, 0.021, -2.432, 1.18, 0.345, 1.202, -0.548, 0.57, 0.663, 0.306, -0.892, -0.551, -0.915, 0.838, 0.564, -0.348, -0.937, 1.657, -1.494, 1.777, 0.301, -0.466, 0.34, 0.765, -0.237, 0.229, -1.34, -1.705, 0.455, 1.144, 1.053, 1.471, -0.342, 0.602, 0.41, -0.222, 0.118, -1.02, 0.181, -0.318, 0.015, -0.431, -1.092, 0.673, 1.06, 0.671, 1.928, -1.392, -0.823, 0.499, -1.29, 2.076, 0.107, 1.66, -0.149, 0.051, -0.087, -0.272, 0.187, 0.504, -0.568, -0.323, -0.798, -0.464, 1.53, -1.637, 2.746, 0.61, 0.97, -1.49, -0.906, -1.186, 1.063, 0.052, -0.614, 1.94, 0.922, 1.863, 1.202, 1.404, 0.235, -0.084, 1.548, -1.31, -0.064, 0.754, -1.21, -0.002, 1.046, -2.065, 0.005, 0.867, -1.439, -0.266, 0.879, 0.467, 0.324, 1.103, -1.554, 1.094, -0.718, -0.448, -0.438, -0.974, -1.661, -0.996, 1.682, 1.465, 0.442, 0.189, -0.942, 0.812, -1.677, 1.428, 0.122, 0.101, 1.386, -0.081, -1.739, -0.46, 0.535, 0.244, 0.491, -1.204, 0.207, -0.419, 0.227, 1.176, 0.253, -0.333, -0.104, 1.525, -1.532, 0.04, 0.482, -0.238, 0.67, -1.011, 0.132, 0.27, 0.685, -0.549, 1.015, 0.042, -2.206, -0.072, -0.04, -1.512, 0.426, 0.66, 0.477, -0.209, -2.032, 0.194, -0.534, 3.65, 0.323, 0.709, 0.279, -0.645, -0.647, 0.728, 0.133, -1.288, -1.017, 1.321, -0.329, 0.28, 0.286, -0.831, 1.398, 1.055, -0.704, 0.679, -1.045, 1.475, -1.346, -0.301, -0.896, 0.139, 0.128, -0.538, -1.466, 0.446, 0.204, -0.173, -1.939, 1.009, -2.256, 0.109, 0.602, -0.985, 0.861, -1.185, 2.19, -1.581, 0.63, 0.623, -0.007, -0.02, 1.454, 0.171, -0.467, -0.136, -0.079, -0.717, -0.87, -0.85, -0.529, 0.36, -0.543, -1.246, 0.048, 0.652, 2.502, -0.316, 0.971, -1.509, 1.412, -0.602, -0.861, 1.841, 1.117, -0.328, -1.164, 0.909, -1.241, 0.829, 0.837, -0.833, -0.254, -0.219, 0.191, -2.759, -0.444, -0.598, -1.837, -1.689, 0.301, -1.139, -0.611, -0.925, 1.22, -0.296, -1.506, 2.739, -0.414, -0.949, 0.352, 1.108, 0.923, -2.042, 0.43, -1.243, 1.226, -0.279, 1.796, 0.774, 0.208, -1.447, -0.465, -0.406, 1.145, -0.467, -0.243, 0.169, -0.944, -1.372, 0.93, -0.753, 0.732, 0.199, 1.323, -0.76, 1.239, 2.063, -0.414, 1.206, -0.147, -0.38, -0.452, 0.532, -0.809, -0.316, -0.581, -0.059, 0.603, 0.911, -0.972, -2.171, 0.487, -0.526, -0.125, -0.609, -0.171, 1.374, -0.561, 0.891, 0.614, -0.301, -1.671, -0.084, 1.384, 0.215, 1.101, 1.017, -1.931, -2.352, 1.709, 1.236, 0.055, 0.846, -0.99, 0.145, 0.778, -0.714, 0.372, -1.468, -2.209, 0.405, -0.385, -1.666, -0.253, -3.092, 0.336, -0.785, -0.049, 0.966, 1.279, 1.511, 1.242, -1.904, 0.257, 0.767, 0.981, 0.026, 1.193, -1.017, 0.307, -1.074, 0.252, -1.288, -1.575, 0.915, 0.11, -1.336, -2.809, -0.596, -0.217, -0.199, -2.008, 0.88, -1.788, -0.176, 0.642, 0.088, -0.219, 0.862, -0.256, -0.561, 0.302, -0.165, 1.099, 0.685, -0.733, -0.976, 0.278, 0.712, -1.881, -2.224, -0.133, 0.823, -0.582, -0.962, -0.677, -1.012, 0.703, -0.386, 0.247, -1.365, 0.693, -1.595, 0.501, -0.188, -1.632, 1.698, -0.237, -1.378, 0.592, 1.041, -0.392, 0.341, 0.18, 0.601, -2.254, -1.149, 0.343, -0.7, -2.045, 0.973, -0.231, 3.006, 1.247, -1.03, -0.514, -2.605, 2.119, -0.183, -2.039, 0.496, 0.098, 0.158, -0.546, 1.35, -1.596, -0.273, -0.968, -0.518, -0.48, -0.68, 0.888, 0.469, -0.678, 0.953, 1.158, -0.985, 0.446, 1.855, 0.673, -1.818, 0.303, 1.049, 0.583, 1.019, -0.677, -0.715, 0.633, -1.291, -1.27, -0.704, 0.59, 0.43, -3.741, -1.297, 2.373, 0.152, -0.652, 0.582, 0.645, 0.547, -1.949, 0.657, 0.696, 2.19, 0.629, 0.925, -0.708, 1.115, -1.12, -1.423, -0.006, 0.097, 0.02, 0.285, 0.879, 0.816, 1.116, 2.387, 1.321, -0.337, 0.361, -0.169, 1.074, -0.739, 0.162, 0.551, 0.022, -0.531, -0.91, 0.995, 0.149, -1.356, 0.805, -0.687, 0.283, 0.544, 1.547, 0.507, -0.868, 2.131, -0.644, 0.987, 0.701, 0.015, 0.514, -0.492, 0.897, 0.554, 0.908, -1.297, 0.426, -1.195, 0.155, 0.858, -0.571, 0.848, 0.07, 0.612, 1.796, 0.748, 0.579, 0.787, -0.688, 0.405, 2.524, -0.054, -1.11, 0.313, 0.06, -2.052, 0.693, -2.323, -0.075, 0.045, -1.588, -1.386, 0.266, -0.719, -0.693, -0.037, -0.175, -0.017, -0.496, -0.998, 1.664, 1.741, 0.982, -0.905, -0.656, 0.018, 0.951, 0.79, 0.244, 0.683, -0.487, 0.142, -0.135, -2.139, -1.589, -0.24, 0.365, -0.15, -0.28, -0.126, -0.74, -1.169, -0.849, -1.48, -0.117, 0.026, 1.972, -0.322, -1.372, 0.924, 0.366, -0.406, 0.757, 1.087, -0.806, 0.544, -0.77, -2.892, -0.149, -0.411, -0.038, -0.274, -1.045, 0.201, -1.715, 1.495, 0.997, -0.172, 0.263, -0.078, -0.702, -0.622, -0.533, -2.036, 0.141, -0.206, 0.287, 0.424, 0.092, 1.199, 0.57, 0.828, 0.551, 0.274, -0.056, -1.014, -0.853, 1.234, 0.269, -0.158, -0.79, -0.186, -0.622, -0.727, 0.294, -0.301, -0.698, -0.042, 0.097, 0.238, -1.838, 1.553, 0.083, -0.093, -1.275, -0.615, -0.724, -0.66, -0.099, 0.78, 0.348, -0.875, -0.503, 0.267, 0.47, -0.678, 0.632, 1.616, 1.224, 1.124, 0.924, 2.724, 0.637, 1.061, 0.994, -0.476, -0.617, 1.719, -0.899, -1.583, 0.106, -1.591, 0.784, -1.464, -1.323, 0.133, 0.719, 0.151, -0.511, 0.908, 0.506, 0.622, -2.664, 1.575, -0.548, -0.374, -1.239, -0.434, 1.458, 0.579, -0.661, 1.272, 1.935, -1.225, -0.459, -0.723, -0.094, 0.67, 0.045, 0.905, 0.435, -0.41, 0.033, 1.217, 0.018, 1.081, 1.152, -1.315, 0.811, -1.693, 0.284, 0.209, 0.496, -0.472, 0.819, -0.951, 0.656, 0.852, 0.775, -2.651, -0.733, -0.72, -0.838, -0.194, -0.491, -0.35, 1.402, 0.733, 0.565, 0.253, 0.941, -0.511, -0.561, 0.339, 0.781, -1.258, -0.492, 1.173, 0.484, 0.956, -0.392, 0.4, -0.277, -0.369, 0.401, -0.78, -0.9, -0.025, 0.115, -1.231, -0.622, -0.246, 0.358, 0.157, 0.473, -0.102, -0.157, 0.258, 1.789, -0.25, 1.371, 0.984, -0.719, 1.316, 2.031, 0.165, 0.036, -0.536, -0.258, -0.262, -0.396, 0.652, -0.285, 0.398, 0.008, 0.101, 0.408, 1.365, -2.297, -1.062, -0.471, -0.156, 1.751, 0.709, 0.522, 0.039, -1.471, -0.794, -0.476, -1.069, 1.647, -0.149, 0.803, 0.697, -2.468, 0.364, 2.022, 1.008, 0.373, 1.895, 1.217, -0.308, -1.285, -1.01, 1.841, 0.016, -0.782, -0.714, 0.626], [1.937, 0.8, -0.69, -1.316, -0.314, 1.718, 1.101, 0.926, -1.736, 0.045, -0.952, 0.152, -0.722, 0.542, 0.722, -0.921, 0.644, -0.181, 0.489, 0.331, -2.213, 0.605, -0.206, 0.122, -0.195, -2.879, 0.075, 0.033, 1.176, -1.006, -0.132, -0.208, 0.573, -0.675, 0.549, 0.971, -1.552, 0.451, -0.523, -0.221, 0.815, -0.524, 0.701, 0.819, 0.576, -1.0, -0.387, 0.109, 1.716, 0.74, -1.745, -0.153, 0.149, 0.883, 0.766, 1.34, -1.004, 0.173, 0.859, -0.587, -0.56, 2.041, -0.94, -0.673, -0.325, -1.154, 2.183, 0.375, 0.85, -0.824, 0.143, 0.439, 1.222, -0.46, 0.502, -0.764, -0.002, 0.194, 0.017, 0.14, -0.204, 1.714, -1.292, 0.512, 1.142, 0.379, 1.697, 0.044, 1.569, -0.968, -0.433, 0.191, -0.71, 1.24, 1.061, -0.647, 1.642, -1.412, -0.229, -0.835, 0.441, 0.157, -1.008, -0.749, -0.646, 0.649, -0.432, -0.114, -0.671, -0.582, -0.138, 0.721, 0.172, 1.282, -0.825, -3.134, -1.56, 0.387, 0.777, -0.499, 0.213, -1.682, -0.502, 0.244, 0.688, -0.013, -1.461, 1.059, -0.175, -0.205, -1.212, -0.88, 0.408, 0.127, -0.141, -0.521, 0.329, 1.525, 0.638, -0.361, 1.827, -0.403, -1.041, -1.064, 0.387, 0.838, 0.106, -1.178, -1.256, 0.889, -0.456, 0.147, 0.091, -0.444, 0.271, 1.1, -0.835, 0.703, -0.622, 0.425, 0.28, 3.307, -2.076, 0.094, 1.484, -0.567, 0.776, 0.284, 0.041, -0.69, -0.738, 1.196, -0.687, -1.201, -0.257, -0.63, 0.834, -0.277, 0.53, -0.378, -1.304, -0.414, 0.538, -0.92, -0.694, -0.702, -1.509, -0.153, 0.484, 0.049, 1.09, 0.914, 2.09, 0.47, -2.074, -0.211, 0.127, -0.618, -0.732, 0.99, -1.116, -0.271, -0.394, 0.073, 1.93, 0.567, -0.232, 1.371, 0.369, 0.508, -0.227, 0.608, -1.084, -0.268, 0.237, -0.581, 1.239, 0.194, 1.446, 0.701, 0.327, 0.238, -0.881, 1.655, 0.695, -1.137, 2.12, 0.94, 2.607, 0.054, 1.19, 1.522, 0.363, -1.141, 0.423, 0.54, 0.076, 0.32, 0.495, -0.011, -1.164, -1.495, -0.178, 0.044, 0.737, 1.453, -1.168, 0.041, 0.084, 0.394, 0.865, 0.04, 0.282, -0.325, -0.071, -1.62, 0.655, 0.816, -2.028, -0.464, 1.293, 0.35, -0.559, 0.388, 1.159, -0.375, -0.65, 0.121, 0.593, -1.578, -0.532, -0.402, -0.097, 0.469, -0.667, 0.046, 0.511, 0.953, 1.357, 0.589, -0.122, 0.888, -1.005, -0.254, -0.602, 0.542, 3.053, 2.159, -0.345, 0.971, -0.318, 0.927, 1.797, -0.312, -0.383, -0.267, 2.817, 1.587, 0.964, -0.387, -1.303, -0.101, -0.03, -0.192, -0.901, 0.123, 0.209, 0.398, -0.397, 0.537, 0.385, -1.257, 0.452, -0.162, 0.6, 0.851, -0.015, 1.105, -0.653, -0.073, 1.748, 0.622, -0.0, -0.462, -0.578, 0.17, 0.816, 0.732, 1.188, -1.215, 1.781, 0.861, 0.493, -0.431, 0.814, -1.753, -1.0, -0.067, 1.055, 0.359, -0.695, 1.919, 0.227, 0.411, 1.404, 1.261, 1.819, 0.416, -0.535, 0.725, -1.726, 0.492, 0.18, -1.079, 0.574, 1.122, -0.039, 0.026, -0.068, -0.291, 0.331, 0.39, 0.449, -1.857, -0.65, 0.383, 0.083, 0.032, 1.291, -1.124, 0.071, 0.073, 0.681, 1.27, 0.421, 1.094, 0.357, 0.71, 1.928, 1.223, 1.152, 0.321, 2.184, 0.455, -0.76, 1.282, -0.198, 0.379, -0.079, 1.414, -0.219, -0.912, 0.043, -1.386, 0.452, 0.106, 0.317, -0.06, -1.323, -0.381, -0.087, 0.869, 0.183, -1.098, 0.803, -0.041, 1.449, 0.48, 1.091, -1.095, 0.92, 0.616, -0.201, -0.346, 1.282, 0.529, 0.103, 0.42, -2.462, -0.875, -0.341, 0.214, -0.421, 0.543, -0.801, -0.373, -0.936, 0.339, 0.763, -0.543, -0.744, -0.273, 0.441, -0.794, 1.17, 0.93, 0.087, 1.61, -0.975, 1.337, 0.042, -1.482, 1.219, 0.788, 0.352, 0.993, -1.308, 0.127, 0.441, 0.354, -1.63, -1.118, -0.974, 1.514, -0.672, 1.043, 1.617, 0.296, -0.417, -0.152, -1.086, -0.595, -0.065, 0.791, 0.015, -0.143, 1.676, 0.163, -0.204, 0.319, 0.703, 2.228, -0.85, -1.546, 0.656, -0.497, 1.238, -0.94, 0.112, -1.374, 0.668, 0.327, -0.815, -0.001, -0.895, 0.947, -1.041, 1.269, -0.114, 1.358, 2.507, -0.102, 1.017, -0.122, 0.186, -0.476, 1.393, 0.648, -0.402, 1.13, -0.587, 0.358, -1.185, 0.773, 0.618, 0.425, 1.099, 1.023, -0.757, -1.587, 0.203, 1.389, 1.049, -0.941, -1.063, -0.325, -0.96, 3.063, 1.966, 1.467, 0.987, 2.761, 1.139, 0.453, 0.501, 2.215, -0.135, 0.07, 0.025, 1.564, 0.809, -0.643, 0.674, 0.796, -0.273, 0.523, 0.359, 0.068, -0.538, -0.195, 0.419, 0.785, 1.093, 0.519, 0.134, -1.178, -0.564, 1.033, -0.169, 1.953, 2.763, -0.817, 0.525, 0.951, -1.433, 0.985, 0.918, -0.491, 0.662, 2.654, 0.764, 1.062, 0.514, 0.336, -1.783, 0.438, 0.9, -1.447, 0.457, 0.765, 0.293, 0.248, 1.098, -1.124, 1.522, 0.011, -1.492, -1.689, -1.322, -0.819, -1.81, -0.758, -0.237, -0.859, 0.316, -0.459, 0.664, 0.769, 0.41, -0.023, -1.292, 0.361, -0.383, -0.698, 0.533, -1.656, 1.457, -0.707, 1.504, -0.315, 0.08, 0.595, -0.307, -1.644, 0.096, 1.019, 0.852, 0.27, -0.963, -0.229, 0.25, 1.31, 0.434, 0.654, 0.449, -0.141, 1.135, 0.422, 0.597, 0.527, 0.826, -1.93, -0.985, 0.895, -1.303, 1.085, 0.732, 1.358, -1.264, 0.413, -0.293, 0.515, -0.594, 0.477, 1.454, 0.038, 0.682, -0.908, 0.397, -0.969, -0.469, -0.149, -0.183, 0.715, 0.526, -0.307, -0.322, 0.203, -0.692, -1.383, -1.047, -0.633, -0.052, -0.462, 0.939, 0.855, 0.019, 1.325, 2.24, -0.65, -0.746, -0.533, 0.048, 0.19, 0.1, 0.059, 0.439, 1.605, -0.049, -0.774, 0.213, -1.093, -0.628, 0.888, -0.608, 0.63, 0.356, 1.447, -1.777, 2.437, 0.836, 0.257, 1.851, -0.063, -0.029, -1.696, 0.278, -0.133, -0.294, -0.198, 0.888, 0.721, 1.13, -1.723, 0.228, -1.822, -1.17, 1.235, 1.8, 1.187, -0.92, -0.774, -0.087, 0.078, -0.248, 0.035, -0.734, -1.585, 1.646, -0.327, 0.846, -0.354, -1.055, 1.633, -0.49, 0.876, 1.34, -0.824, 1.834, 0.334, -0.979, -1.435, 0.34, 0.496, -0.142, 0.175, -2.055, 0.67, 1.372, 0.028, 1.538, 0.679, -0.734, -1.246, 0.931, -0.523, 0.313, -1.652, 2.339, -1.061, 0.239, -0.31, -0.314, -1.403, 0.652, -1.504, 0.522, 0.435, -0.833, 0.234, -1.595, 0.179, -0.095, -1.914, -2.768, -0.187, -0.25, 0.776, 0.148, -0.022, -1.689, -0.513, -0.795, 0.7, -1.203, -1.839, -0.827, -1.098, 0.737, 0.61, -1.514, 0.845, 0.091, 0.174, -0.295, -0.736, 1.307, -0.536, 0.571, 0.928, -0.367, -0.361, -1.723, 0.091], [1.691, -0.641, 0.753, 0.018, 0.72, 0.291, 0.065, 0.982, -1.819, 1.01, 1.436, -0.802, -1.111, 1.731, -1.745, -0.741, -2.764, 0.348, 1.323, -0.338, 2.259, -1.189, 1.63, -1.299, 1.026, 0.693, -0.372, -1.857, 0.375, 0.002, 1.818, 2.159, 2.278, 1.49, -0.411, -1.925, -0.628, -0.251, 1.6, -1.256, -0.812, 0.12, 0.727, 1.083, -0.01, 0.78, 2.459, -0.003, 0.134, -0.138, 1.566, 0.03, -0.301, -0.857, 0.435, -1.0, 0.85, 0.15, 0.425, -0.146, -0.485, -0.957, -1.314, 0.55, -1.064, 0.356, -1.391, 1.601, -0.476, 1.215, -1.445, 1.762, 0.325, 0.632, -0.252, -0.453, 0.629, -0.519, 0.119, -2.177, 1.562, -1.003, 1.166, 0.335, -0.309, 0.165, 0.949, 0.358, 0.317, 0.339, 0.66, -0.693, 0.885, 2.26, 0.261, -0.918, 0.113, 0.806, -0.327, -0.977, -1.176, -1.55, -0.008, 1.108, 0.017, -1.408, -0.802, 0.772, -2.075, -1.35, 0.325, -0.436, -0.439, 0.804, -0.352, 1.643, -0.303, -0.175, 0.225, -0.232, -0.113, 0.521, 1.083, 1.877, 0.178, -0.1, 0.328, -0.152, 0.762, 0.713, -1.475, -1.069, -1.165, 0.36, -0.663, -0.277, -1.41, 0.487, 2.155, 1.024, 0.604, 1.524, -0.236, 0.233, 0.033, 0.517, 0.021, -1.397, -0.516, 0.688, 0.115, -0.262, 1.609, 0.99, 1.692, -0.653, -0.718, 1.525, -0.344, -0.223, -2.355, 0.275, -0.02, -0.335, 0.631, -0.346, -1.849, 1.178, 1.542, -0.552, 1.17, -1.189, 1.471, -0.196, -1.596, -1.22, -0.496, -1.816, -0.639, -0.265, 1.025, 3.589, 2.951, 2.249, 0.675, 0.742, -1.602, -0.008, -1.64, -0.174, -1.138, 0.245, -1.019, 1.12, 0.958, -0.191, 0.074, -0.622, 0.058, 0.192, -0.997, -0.748, 0.564, -0.613, -1.403, -0.4, -0.517, -1.024, 0.001, 2.265, -1.128, 0.594, -1.438, -3.072, -1.183, -1.596, -0.291, -0.157, -0.382, -1.928, -0.898, 0.571, 0.089, 0.599, 0.414, 1.242, 0.146, -1.442, -0.302, -1.37, 0.261, -0.807, -0.674, 0.347, -0.591, -1.276, 0.343, 1.941, 1.35, 1.572, -0.755, -1.154, -0.559, 0.421, 0.086, -0.187, 0.336, 0.577, 1.982, -0.485, 1.232, -0.013, -1.71, -0.094, -1.016, 0.97, -0.576, -0.659, 0.922, 2.482, -1.211, -1.198, 0.484, -0.096, 1.61, 3.237, 2.368, 0.67, 0.293, -0.739, -0.63, -0.788, 0.08, 0.649, 1.793, 2.299, 1.242, -1.07, -1.885, -2.056, 0.814, -0.48, 0.684, -0.897, 0.188, 0.428, -0.689, 1.053, -0.215, 0.011, 0.51, 1.112, 1.546, 0.725, 1.083, -1.984, -2.823, 1.017, 0.295, -0.382, -0.488, -0.5, 0.546, -0.204, -0.376, 0.899, 1.656, 3.039, 0.81, -1.132, -0.652, 1.104, 2.784, -1.55, -0.348, 0.539, -1.12, 0.716, 1.207, 0.923, 1.49, -0.104, 0.613, -1.142, -0.822, 2.256, -1.68, 1.305, -0.137, 1.739, -0.34, -0.79, 0.121, -2.085, 0.436, -0.25, -1.244, -0.29, -1.145, -0.206, -0.679, -0.973, 0.707, 1.705, 2.128, 1.447, -0.106, 0.201, 1.779, 1.661, -0.387, -0.954, -0.569, 0.098, 0.284, -0.194, 0.86, -0.295, 1.017, -0.041, 0.013, 0.783, 0.902, -1.837, 1.001, -0.745, -0.76, -0.49, -0.817, 0.62, -0.556, 0.278, -0.075, 0.726, 1.328, 1.089, 0.542, 0.85, -1.287, -0.166, -1.539, 0.17, 0.628, -0.183, 0.361, 0.216, 0.414, 1.257, 0.606, 1.42, 0.07, 0.054, -0.762, -0.279, -2.592, 1.003, -1.55, 0.837, -0.463, -0.185, -0.173, 0.409, 0.268, 0.275, -0.966, -1.407, -0.054, -1.549, 0.181, -1.005, 0.627, -3.105, 0.988, -2.51, -0.762, 0.504, 2.053, 0.069, -0.766, -1.442, 0.494, 0.588, 0.66, -0.144, 0.193, 0.99, 0.312, -0.419, 0.169, -0.41, -0.297, -0.529, 0.23, 0.422, -1.527, -0.734, 1.17, -0.982, -0.741, 0.073, -0.912, -2.627, -1.279, 0.142, 1.001, 0.981, -0.142, 0.011, -1.322, 1.874, -2.007, -0.576, 0.447, 2.079, 1.411, -1.64, 0.308, -0.398, 0.004, -0.148, -0.968, 0.782, -0.042, -0.249, 0.068, 0.101, -0.2, 1.004, -1.319, 1.039, -0.427, -0.341, 0.253, -0.327, 1.694, -0.337, -0.523, -0.354, -1.013, 1.835, -0.463, -0.95, 1.515, 2.288, 0.234, -0.116, -0.313, -0.162, -0.643, 1.135, -0.408, 0.521, -1.573, -0.084, -1.064, 0.771, -0.137, -0.04, 1.773, 0.158, 2.322, -0.049, -0.118, 1.031, -2.029, 0.144, 1.47, -0.111, 0.25, -0.285, 1.298, -0.587, -1.047, 0.611, -0.433, 2.243, -0.734, 1.538, 0.14, -0.376, 2.001, 0.751, 1.189, 0.272, 0.082, 0.55, 0.44, -0.054, -1.272, -0.783, 0.063, 0.151, -0.967, -0.866, -0.34, 0.598, 0.991, -0.103, 1.108, 1.269, 0.704, 0.214, 1.274, 0.677, 0.594, 0.808, 0.095, 0.387, 0.575, -0.986, 0.245, 0.246, 0.19, 0.76, 0.148, -0.186, -1.613, -0.639, 0.825, -0.46, -0.189, -0.708, -1.631, -0.074, -0.663, 0.181, -0.004, 2.399, 1.874, 1.471, -0.133, 0.037, 0.532, 0.007, 0.573, -1.436, -0.161, -0.041, -0.592, 0.088, -2.1, 0.724, 1.416, 0.459, 0.294, -1.019, -1.079, 1.391, 0.651, -0.834, 0.365, 0.283, -1.985, 0.74, -0.67, -0.326, -1.255, 1.029, -0.294, 1.66, -1.316, 1.804, -0.565, -0.405, 1.341, 1.395, 1.3, 0.308, -0.412, -1.498, 0.394, 2.055, -1.671, 0.519, 0.699, 0.444, 0.777, 0.064, 0.779, 1.064, -0.188, -1.623, -2.21, -0.442, -0.447, 0.548, 1.506, 0.648, -0.415, -0.733, 0.212, 0.395, -0.505, 2.095, -1.241, -0.436, 1.267, 2.21, 2.365, -0.495, -0.83, -1.547, 1.148, 0.061, 0.897, 0.06, 0.989, 0.32, 1.348, -0.914, -1.453, -2.506, -0.984, 0.66, -0.729, -1.216, 0.662, -1.323, 0.458, -2.216, -2.646, 0.264, -0.19, 1.204, 0.505, -0.185, 0.672, 0.914, -0.207, -0.074, -1.061, 0.69, 0.667, 0.537, 2.159, 2.203, -1.799, -0.112, -1.059, 0.878, 0.275, -0.612, -0.167, -1.654, -0.618, 0.576, 0.549, -0.731, 1.408, -0.724, -0.292, 1.739, 0.926, 0.516, -1.277, -0.524, 0.498, 0.064, -0.716, -2.097, -0.96, 0.69, 1.127, -1.163, -1.485, 0.15, -0.057, -0.075, 1.844, -0.777, 0.588, 0.131, 0.725, 1.168, 1.181, -0.689, 0.788, 0.686, -0.772, 1.603, 0.966, 0.868, -0.195, 1.078, -1.116, 0.078, 0.184, 0.723, -1.071, 1.675, 1.946, -0.549, 0.073, -0.736, -1.677, -1.068, -0.629, -0.203, -0.291, -0.3, 1.474, 1.192, -0.771, -0.873, 0.66, 0.887, 0.848, -1.163, 1.738, -1.14, 0.302, 0.052, 1.22, -0.546, -1.724, -0.508, 0.475, 0.24, 0.837, 1.908, -1.02, 1.091, 0.396, -1.455, 0.43, -3.8, 1.895, -0.482, -1.583, 0.616, 0.198, 0.009, -0.043, -0.17, -1.031, 1.323, -0.084, 1.323, 1.502, 1.553, -0.36, -0.223, 0.075, 0.263], [-2.595, -0.223, 0.923, 0.137, -0.299, -0.514, -0.129, 0.881, 0.64, -3.082, -0.943, -0.244, 1.438, 0.311, 0.595, 0.281, -0.24, 0.109, 1.659, 1.335, 0.443, 0.076, -0.751, 0.116, -0.766, 0.63, 0.073, -1.222, 0.896, 0.83, 0.737, 0.307, -1.524, -1.948, 0.6, 0.555, 0.307, -0.294, -0.655, -1.648, -0.292, -1.101, 0.335, -0.395, 0.324, 0.117, -0.066, -0.279, -0.641, 1.492, -1.7, -0.743, -0.233, 0.23, 1.089, 0.796, 0.031, 0.147, 0.376, -0.071, 0.337, -1.364, 0.576, -0.424, -0.858, -1.092, -0.775, 1.436, 0.995, 1.171, -0.033, -0.344, -0.672, 1.908, -1.169, -0.847, -2.336, 0.081, 0.668, 0.758, -0.988, 0.679, 0.705, -2.623, 0.835, -0.097, -2.146, -0.054, 1.246, -0.12, -0.843, -0.072, -0.611, -0.556, -0.01, -1.075, -2.294, 0.158, -0.738, 0.32, -0.884, 0.196, -0.244, 0.253, 0.911, 0.373, -0.662, 0.94, 0.627, 0.994, 0.364, -0.42, -0.258, -0.137, -0.136, -1.557, 1.293, 1.674, 1.451, 0.594, 0.939, -2.28, -0.956, -0.82, -3.015, -1.273, -1.024, -0.648, 0.121, 0.211, 0.546, -0.958, -0.753, 0.575, 1.072, 0.524, 0.625, 0.803, 2.693, -1.428, 0.532, -0.617, -0.244, 0.136, -0.095, -0.542, 1.106, -1.866, 0.123, -1.721, -0.985, 0.112, 0.01, -0.002, 0.86, -0.086, -1.038, 0.167, 0.248, 1.787, 2.479, 1.451, 0.133, 0.094, 0.498, 0.237, 1.402, 1.487, -1.216, -0.59, 0.32, -0.399, -1.45, -1.307, -2.971, -1.454, -0.455, -1.132, -0.982, -0.786, -1.803, -0.02, 0.046, -1.117, 0.793, -0.2, 0.191, 1.384, -0.618, -1.196, 1.752, 0.424, -1.087, 1.045, 0.297, 0.073, 0.272, 0.02, 0.189, 1.015, -0.597, -1.17, -0.066, -2.336, -0.017, 0.41, 0.675, 0.148, -1.347, -1.218, -1.25, -0.35, 1.403, 2.24, -0.684, 1.685, 0.953, 1.69, -0.08, -0.055, 1.152, 1.101, -0.074, -0.997, -0.871, -0.196, -1.005, -1.334, -1.485, -1.658, -1.639, -1.024, 0.204, -0.79, -0.159, 0.01, 1.135, -1.374, 0.056, -1.166, 0.53, 0.147, 1.042, -0.132, -0.78, -0.029, 1.811, 1.973, 0.457, 2.425, -1.709, 0.293, -0.987, -0.486, -0.583, -0.585, -0.332, -1.486, 0.627, -0.079, 0.723, 2.18, 4.049, 3.495, 2.515, 2.495, 1.108, -1.503, -1.839, -0.891, -1.407, -1.165, -1.21, -0.23, 0.928, 0.804, 2.014, -0.258, -2.115, -1.794, 0.122, -1.706, 0.009, 0.069, -1.351, -0.794, 1.927, 2.207, 5.921, 4.978, 5.426, 3.589, 3.433, -0.037, -1.275, -0.188, -1.289, -1.233, -1.144, 0.658, -1.008, 0.758, 0.918, 1.311, 0.216, -0.112, 0.099, -0.684, -0.436, 0.789, -0.297, 1.941, -0.781, 2.924, 2.702, 3.439, 4.047, 2.787, 2.347, 1.484, -0.789, -0.085, 0.127, -2.42, -0.729, 0.977, -2.134, 0.882, -0.339, 0.648, 1.556, -0.664, -0.045, -0.974, 1.847, -1.533, 0.257, 0.607, 2.13, -0.569, -0.969, 1.349, 1.421, 4.202, 1.441, 1.206, 0.543, -0.422, -0.242, -0.086, -2.014, -0.358, 0.256, 0.103, 0.129, -0.054, -1.052, -0.006, -0.586, 1.197, 0.41, 2.346, -1.144, -0.352, -0.632, 0.618, 0.158, -2.821, 0.356, 1.19, 0.881, 1.356, 0.889, -1.368, 0.995, -0.952, 0.881, 0.494, -1.13, -0.998, 1.894, -1.147, 0.46, -0.594, -1.093, 0.87, 0.003, -0.441, -0.394, -2.286, -0.802, -0.84, 1.934, -3.269, -1.196, 0.614, -1.084, -1.083, 0.877, -0.534, 0.801, 0.145, -0.957, 1.269, -0.239, -1.577, -1.527, -0.139, 0.289, -0.428, -0.036, -1.833, 0.684, 0.584, -0.602, 1.179, 0.466, -0.177, 0.095, 1.851, -0.412, 1.082, -1.522, -0.742, -1.107, 0.032, 1.147, -0.755, 0.425, -0.135, 1.693, 0.64, -0.429, -0.691, -1.15, -0.04, -1.449, 0.186, -1.563, -1.693, -1.584, -2.425, 0.073, -0.49, -1.191, -0.568, 0.205, 1.313, -1.024, -1.106, -2.139, 0.46, -1.657, 0.525, -0.128, 1.324, 1.323, 1.103, -0.018, 1.319, -0.771, -2.085, -2.617, 0.417, -0.826, -0.878, 0.941, -1.66, -0.139, -1.505, -1.496, -1.203, 0.291, 1.487, 0.376, 1.426, 0.222, 1.368, -0.542, -0.493, -0.245, 0.921, -1.097, -1.561, 0.424, 2.886, 0.81, 1.674, -0.35, -1.124, 0.155, 0.704, 1.277, 0.073, -0.042, 1.273, -0.203, -1.442, -1.278, 0.503, -0.794, -0.726, -0.216, 0.071, 0.629, 0.512, -0.253, -0.791, -0.585, 0.134, -1.129, 0.91, 0.582, -0.86, -0.089, 0.403, -1.269, -0.976, -1.051, 0.083, 0.049, -2.74, -0.12, -1.017, -0.424, 0.778, -1.163, -0.121, 0.402, -0.326, -1.869, -1.069, -1.478, -0.748, -0.771, -0.071, -1.28, 2.672, 1.131, -0.365, -0.53, -0.078, 2.367, 0.582, 0.613, 0.208, 1.497, -0.023, 0.561, -0.386, -0.879, 0.41, -1.612, -0.556, -0.485, -0.965, 1.316, 0.061, -0.63, 1.181, 0.076, -1.093, -0.921, -0.532, -2.433, -0.154, 1.153, 1.273, -1.297, 1.562, 0.378, 0.898, 1.616, 1.892, 1.203, 0.072, -0.959, -0.265, -0.658, 0.128, -0.6, -0.565, -0.174, -0.957, -1.525, 0.478, -0.0, -1.255, 0.007, -0.05, -0.813, 0.791, -2.135, -0.214, -2.149, -0.118, -0.301, 1.28, -0.602, 2.007, 0.17, 2.328, 2.031, -2.916, 0.092, -2.112, 1.445, 1.355, -0.948, -0.75, 0.43, -1.611, -0.851, 0.229, -0.476, -0.049, -1.336, 1.021, 0.615, -0.341, -0.559, -3.723, -0.4, 0.155, -0.052, 1.195, -0.978, 0.307, 2.678, -0.118, 2.155, 0.403, -2.104, -0.173, 0.657, -0.246, 0.208, 1.279, 0.804, 1.905, 0.295, 0.351, 0.861, 0.711, -0.763, 0.918, -0.557, 1.615, 0.213, 0.986, -0.935, -1.051, -0.591, -0.168, 0.69, 0.189, 0.306, 0.253, 0.41, -0.139, 0.054, -0.785, 0.486, 1.312, 0.488, 0.644, -0.453, 1.746, 0.053, 0.469, -0.32, 0.515, -0.805, -1.533, -0.585, 0.535, 1.825, 0.18, -1.582, -1.008, -0.541, -0.303, -0.823, 0.577, 0.09, -2.311, -0.594, -0.813, -0.926, 2.032, -1.336, 2.174, 1.148, -0.863, -1.248, 1.755, -1.152, 0.462, -1.165, -1.524, -1.974, -0.23, 1.875, 0.8, -0.598, 0.181, -1.219, -1.141, 0.629, 0.334, 0.531, -2.047, 0.079, 0.65, -0.175, 0.931, 0.886, 1.843, 1.706, -0.861, -0.162, -0.4, 0.61, -1.526, -0.091, 0.798, 0.387, -0.915, 1.224, 0.029, -0.449, 2.05, -1.055, 1.363, 2.618, -0.628, -0.594, 0.281, -1.055, -1.163, 1.579, -0.302, -0.286, 0.997, 0.521, -0.644, 0.479, 0.418, -0.55, 1.58, -1.757, -0.656, 1.063, -0.252, 0.949, 0.576, -1.811, 0.74, 1.127, 1.081, -1.123, -0.948, 0.029, 1.809, -1.089, 0.302, -0.026, -2.008, 0.835, -0.819, -0.61, 0.152, -0.562, 0.879, 0.163, 1.858, -0.902, -1.91, -0.573, 0.004, -0.937, -0.872, -1.009, -0.174], [-0.114, 0.208, 0.049, 0.718, -0.241, 1.0, -1.466, 0.782, -0.42, -0.4, -0.071, 0.445, -0.263, 2.844, 0.675, 0.213, 0.611, 0.242, 1.332, -0.071, -0.325, 0.38, 1.505, -0.561, 0.907, 2.066, 1.345, -0.901, 0.584, 0.454, 3.278, 1.097, -0.375, -0.05, -0.82, -0.807, -0.692, 1.035, 1.147, 1.688, 0.343, 0.568, 1.884, 1.404, 1.177, -0.584, -2.539, -1.186, 1.453, 1.452, 0.245, -1.061, -0.091, -0.737, -0.36, -1.152, 0.17, 0.115, -1.532, 1.307, -0.312, -0.435, 0.344, 1.045, -0.502, 0.954, -1.24, -0.137, -0.06, 0.042, -1.684, 0.409, -0.604, 0.966, 2.763, 0.547, -1.027, 0.865, -0.171, 0.672, 0.979, -0.822, -0.879, -1.014, -0.437, 0.636, -0.779, 1.382, 0.35, -0.837, -0.791, -1.68, 0.014, 0.057, 0.402, -1.201, -2.341, 0.172, -0.833, -0.234, 0.219, 0.417, 2.978, -1.302, -1.355, -0.988, -0.866, -2.058, 0.045, -0.738, 0.78, -0.33, 1.073, 0.04, -0.249, 0.545, -0.079, -1.435, 0.627, -1.04, 0.515, 2.308, -0.193, 0.562, -0.158, 0.884, -0.077, 0.021, 0.95, 0.642, -0.175, -0.561, 1.051, 0.334, -0.001, 0.217, 1.316, -0.015, -0.769, -1.097, 1.59, 1.279, 0.606, 0.095, -0.115, -0.131, 0.296, -0.712, 0.307, 1.881, 1.401, -0.511, 1.271, -1.587, 1.403, 0.238, -0.002, 1.007, 0.831, 0.902, -0.956, 0.955, -1.025, -1.034, -1.325, 0.201, -0.405, 2.167, 0.629, 1.417, 0.279, 0.989, -0.482, 1.752, -1.009, 0.531, 1.152, 0.09, 0.368, 0.823, 0.187, 1.127, 1.463, 0.977, -1.327, -0.096, 1.542, 0.265, 0.226, 1.684, -1.713, 0.853, -0.378, 1.371, -0.521, -0.633, 0.71, -1.052, 0.163, 0.781, 0.331, 0.51, 2.204, -0.335, 0.843, 1.565, 0.068, -0.106, 0.133, 0.497, 0.847, 0.824, 0.316, 0.313, -0.146, 1.218, 1.27, 0.363, -0.224, -0.289, 0.654, -0.769, -0.833, 0.763, 0.838, 0.082, -0.685, 0.219, -0.417, 0.109, 1.384, -1.051, 0.783, 0.268, 1.117, 0.855, 0.894, -0.333, -0.603, 0.66, 0.025, 0.15, 0.014, 1.333, -0.349, -0.327, 0.55, -0.423, -0.06, -0.201, 0.998, -0.045, -0.505, 1.277, 0.553, 0.959, 0.421, 0.209, 1.059, 0.979, -0.144, -1.158, 0.596, -0.463, -0.723, 0.474, -0.316, -0.184, 0.838, 0.422, -1.577, 0.437, -0.212, -0.875, 0.76, 0.708, 0.455, -0.201, 0.884, 2.211, 1.513, -0.342, -0.405, 0.861, 1.316, 1.515, -1.223, -0.681, -0.149, 0.784, 0.258, -0.463, 0.169, -0.682, 0.937, 0.162, -0.161, 0.217, 1.176, -0.276, 0.182, 0.108, 0.582, 0.957, -0.449, 1.06, 0.566, -1.085, 0.561, 2.597, 0.934, 0.013, 0.311, 0.356, -0.432, 1.359, -0.909, 0.275, 0.245, -0.707, -0.293, 0.779, 1.242, 0.302, 1.08, 0.522, -1.145, 1.076, 1.525, 1.4, -1.731, 0.459, 1.799, -1.05, 1.368, 0.654, 0.338, 0.244, -0.706, -0.888, 0.347, 0.475, 0.024, -0.366, 1.442, 1.012, 0.398, -0.585, 0.557, 0.183, -1.229, 2.714, -0.32, 0.25, 1.107, 1.395, -0.353, 0.048, 0.509, -0.249, -0.656, 0.439, 0.84, -0.209, 3.124, 0.775, 1.254, -1.93, 1.605, -1.297, 0.572, 0.057, 0.561, -0.367, 1.551, 0.127, -0.153, -0.027, -1.255, -0.705, 0.636, 1.175, -0.461, 1.463, 1.544, -0.049, 1.308, 1.137, 0.265, 0.306, 0.726, 1.044, 0.956, 0.374, 0.91, -2.002, 0.257, 0.593, -0.716, 1.577, 1.865, -0.674, -0.516, -0.01, -0.215, 0.751, 0.077, 0.042, -1.212, -0.78, 1.749, -0.054, -0.048, -2.437, -0.285, 1.178, 0.774, 1.151, 0.326, -2.448, 1.14, 0.481, -0.241, -0.613, -0.226, -0.182, 0.728, -0.66, 0.114, -0.543, -0.285, 0.974, 2.058, 0.325, -1.057, 0.18, 0.324, 0.799, 0.377, 0.858, 1.883, -1.643, -0.692, -0.616, 0.691, 1.288, 1.686, -0.507, -0.569, 2.123, 1.341, -0.5, 0.029, -1.879, 0.142, 0.457, 0.716, 0.75, 2.498, 1.212, -0.613, 1.783, 0.5, -0.887, 0.506, 1.449, 0.451, 0.615, 1.815, 0.364, -0.907, -0.783, 0.935, -1.497, 0.925, 0.582, 0.628, 0.792, 0.855, 0.236, -1.499, -0.367, -0.038, 0.982, -0.018, -1.443, -0.825, -2.901, 1.226, -0.076, 0.898, 3.163, 1.737, 0.019, -0.129, -0.503, -0.964, 0.058, 0.776, -2.127, -1.293, -0.007, -0.918, 0.284, -0.226, -0.444, -1.314, 0.249, 0.258, 0.104, -0.919, -2.758, -0.714, 0.088, 1.744, -0.747, 2.769, -0.601, 0.504, -0.2, 0.327, -2.3, -1.635, -0.183, 0.91, 0.549, -0.01, 0.525, -0.274, -0.299, -0.206, -0.578, -0.402, -0.665, 0.391, -0.434, 1.381, 1.022, -1.121, -0.548, 0.812, 0.437, 0.126, -0.497, 2.442, 0.878, -1.219, 0.503, -1.033, -0.214, 1.301, -0.892, -0.874, 0.923, 2.691, 1.849, 0.329, 0.42, -1.766, 2.107, -0.372, 0.031, -1.019, -0.041, 1.023, 0.026, 1.338, 0.727, 0.785, -0.132, -0.732, 0.724, 1.479, -0.045, 0.589, -0.615, 0.478, 0.878, 0.587, -0.646, -0.609, 0.179, -1.341, 0.797, -0.743, -0.185, 0.56, 0.302, 0.451, 1.013, 0.186, 0.097, -0.766, -0.052, -0.249, -0.747, 1.103, -0.515, 0.676, 1.475, 0.931, 0.002, -0.322, 0.272, -1.615, 1.254, 0.338, 0.584, 1.221, 1.353, -0.029, -0.644, -0.015, -2.689, -0.849, -0.438, 0.392, -1.238, 0.162, -0.566, 1.715, -1.1, 0.858, 1.558, -1.427, -1.731, 0.619, 1.126, -0.535, 0.82, -0.479, -0.997, -0.33, 0.526, -0.495, 1.361, 0.881, -1.384, -0.435, 0.147, -0.256, -0.145, 0.099, 0.213, 0.304, 0.581, 0.347, -0.467, 0.677, -0.366, -0.011, 1.829, 1.904, 0.121, 0.071, 1.264, 0.882, -1.677, 0.281, 0.064, 0.011, -0.794, 0.279, -1.161, -0.372, -0.129, -0.323, -0.202, 1.62, -1.284, 0.155, 0.458, -0.641, 0.802, -0.026, 1.734, -0.912, -1.804, 0.333, 0.436, 0.314, 0.746, -0.622, -0.7, -0.185, 0.552, -0.542, -0.882, 1.964, 0.109, 0.698, 0.893, 0.486, -2.157, 0.17, 1.293, -0.673, 0.405, 0.122, -0.372, 0.365, -0.007, 0.826, 1.014, 1.3, -0.241, -1.935, -0.547, -1.314, 0.91, -0.248, 0.631, -0.3, -0.099, 0.986, -0.515, 0.429, -1.92, 1.344, 0.286, -1.081, -0.88, 2.202, 0.056, 0.389, 0.451, -0.298, 0.527, -0.328, -0.743, 0.895, -0.601, -0.654, 1.385, 1.002, -2.36, 1.254, 0.551, -0.102, -1.464, 0.689, -0.303, -0.436, -0.287, -0.211, -2.93, 1.239, 0.351, -1.255, 0.474, -2.641, -0.958, -0.51, -0.143, 0.317, 1.067, 0.396, -0.161, 0.005, -1.939, -0.01, 0.728, -0.018, -1.152, 0.119, -1.36, 0.879, 1.741, 0.188, 0.918, -1.094, -0.45, -1.768, -0.325, -0.469, 0.008, -0.858, -2.053, 0.928, -0.375, 1.016, 1.449, 0.414, -0.687], [0.488, 0.262, 0.123, -0.129, 0.603, 0.83, -1.374, 2.03, -0.254, -0.896, -0.558, -0.631, 0.642, 1.311, 1.046, 0.116, -2.016, 1.151, 2.09, -1.283, -0.616, 0.553, -0.642, -0.89, 0.497, -0.753, 0.255, -1.346, 0.577, 1.522, -1.257, -0.746, -1.554, -1.191, 0.314, 0.601, -0.035, 0.953, -1.702, -1.091, 0.771, 1.431, -0.013, 0.93, -0.425, 1.494, -0.118, -0.22, -0.627, -0.417, 1.091, 0.381, -1.267, -2.183, -1.207, 0.712, 1.516, -0.645, -0.928, -0.69, -1.368, 0.163, -0.58, 0.688, -0.864, -0.984, 0.105, 1.094, -1.639, 0.28, 0.573, -1.309, 0.178, 2.718, 0.125, 2.153, -1.104, 0.54, -0.679, 0.009, -0.397, -1.158, -1.484, 1.315, 0.2, 0.491, 1.851, -0.903, -1.744, -0.382, -0.389, 0.004, -0.538, -1.513, -1.344, -0.416, 1.126, 0.177, 0.435, -0.727, 0.252, 1.096, -1.448, -0.979, -0.465, 1.844, 0.512, 0.38, 2.588, 1.143, -1.414, 0.647, -0.859, -1.33, 0.341, -0.643, 1.781, 0.172, 0.51, -0.576, 0.766, -1.676, 0.216, -0.865, -0.499, -1.16, -2.306, -0.754, -1.369, 0.725, 0.604, 0.566, 0.184, 1.574, 0.283, -0.115, 1.432, 1.243, 0.126, 0.095, 0.543, 0.371, 0.572, 0.343, -0.86, -0.102, -0.082, -0.315, -0.431, -0.448, -1.762, -0.229, -1.621, -0.168, 0.272, -1.806, -2.938, -1.883, -2.908, -0.63, -1.613, 0.352, -0.512, 1.32, -0.615, -0.539, 0.02, -0.67, -0.478, -0.717, -0.183, 1.303, 0.001, -0.086, -0.588, -0.002, -0.57, 0.408, 0.12, 0.851, 0.149, -0.111, 0.75, 2.071, -0.066, -0.431, -0.207, 1.357, -0.778, -0.702, -0.185, 0.119, -0.546, 1.653, -0.742, -1.166, -0.758, 0.184, 1.545, 1.019, -0.663, -1.274, 0.766, 0.435, -1.409, 1.038, 0.463, -0.007, 1.983, -0.318, 1.603, 1.49, -0.195, 1.83, 0.368, 2.032, 0.097, 1.523, 3.164, 0.483, 1.756, -0.016, -0.304, -0.101, -0.838, -1.241, 1.339, 0.225, 0.703, -0.003, -1.403, 0.134, 1.141, -0.424, -0.018, -0.786, -1.178, 0.833, -0.057, 0.9, 0.58, 1.38, 1.217, -0.393, -0.069, -0.49, -0.59, -2.266, 1.363, 0.65, -0.15, 0.312, -0.356, -0.66, -1.119, 0.183, 0.861, -0.438, 0.334, 0.44, -0.987, 0.587, 0.826, 0.596, 1.482, 0.294, -1.883, 0.527, -0.746, -1.849, -0.701, 0.963, -1.201, 1.68, -0.262, 0.191, 0.473, 0.386, -1.663, 0.092, -0.906, -0.265, 0.375, -0.466, 0.918, -1.512, 0.582, 2.384, 0.344, 0.505, -0.325, -0.062, 0.232, -0.913, 1.268, -0.942, 0.526, -0.016, 0.702, 0.548, 0.767, 0.302, -0.139, 0.705, -1.252, -1.287, 0.767, -1.376, 1.584, -0.262, -2.415, 1.017, 0.616, -0.978, -0.213, -0.221, 0.284, 1.041, 0.514, 0.524, -0.329, 0.09, -0.835, -0.27, 1.074, -0.277, 0.31, 0.395, -0.121, -1.288, -0.639, 0.197, -0.157, -1.453, -1.557, 0.704, -0.129, -0.771, 1.068, 0.084, -0.145, -0.834, 2.529, 0.328, 1.721, -0.499, 0.788, 2.242, -1.179, -0.586, -0.899, 1.247, 1.067, 1.513, 0.683, 0.982, -0.339, -0.051, 0.237, -0.362, -1.672, 0.348, 0.459, 1.852, 1.164, -0.502, -0.724, -0.423, 0.29, 0.239, -0.407, 0.83, -0.399, 1.54, 2.184, -0.493, -0.516, -1.045, -0.18, -0.349, -2.479, 0.519, 0.308, -0.917, -0.535, -0.302, 0.151, -0.038, -1.576, -1.199, 2.103, -0.872, -1.317, -0.068, -0.083, -0.817, 0.2, 2.659, 2.135, 0.892, 1.207, 1.433, -0.491, 0.344, -0.737, -1.617, -0.436, 2.009, 1.883, 1.482, 1.568, -0.019, 0.569, -0.163, -1.148, -1.624, 0.598, 1.486, 1.292, -0.913, 0.805, -0.279, 0.093, -0.007, -0.757, -0.101, 0.303, 1.197, 2.869, 0.431, 1.349, -0.094, -0.95, -1.452, 0.767, -0.275, 1.38, 1.98, 1.006, -0.246, -0.638, 2.1, 0.508, -0.296, -1.639, -1.202, -1.436, -2.649, -0.416, -1.796, -1.545, 0.668, 0.643, -1.815, -1.44, 1.113, 0.261, -0.988, -1.097, 1.568, 0.702, -0.784, -0.527, -0.601, 1.5, 0.87, 0.666, -0.736, 0.367, -1.282, -0.081, -1.613, -0.819, -0.038, 0.464, 0.979, 1.59, 0.856, -1.758, -0.069, -1.955, -0.656, 0.218, -0.696, 1.772, 0.678, 0.125, 0.501, 0.109, 1.331, 0.89, 0.356, -0.136, 0.861, -0.809, -0.351, -1.408, -0.241, -0.908, -1.412, -0.473, -1.951, -0.489, 1.468, 1.132, 0.88, 0.331, 2.302, 0.536, 1.309, -2.322, -2.453, -0.529, 0.808, 0.068, -1.241, -0.317, -0.485, -0.763, -0.835, 0.772, 0.077, 0.695, 0.306, 0.334, -0.017, -1.575, -1.143, -0.131, 1.925, -2.193, 0.8, -0.321, -0.135, 0.651, -1.178, -0.124, -0.723, -1.836, -1.642, -0.073, -1.106, -1.603, -1.828, -0.56, 0.564, -0.129, -2.206, 0.742, -2.1, -1.314, -0.105, -1.467, 0.515, -1.253, 0.263, -1.25, -0.135, 0.529, -0.457, -0.03, 0.146, -0.4, -3.538, -1.336, 0.119, -2.274, -1.591, -1.986, -0.747, -1.982, -2.426, -1.833, 0.068, -3.29, -2.523, -1.053, -2.084, -0.81, -1.538, 1.812, -1.642, -1.596, -2.55, -0.735, -2.134, 0.143, -1.081, 2.168, -1.639, -0.159, -1.297, -0.417, 0.793, -1.742, -0.781, -1.489, -1.438, -1.223, -1.429, -2.078, -1.13, -1.512, -0.465, 0.074, -0.033, -0.431, -0.168, -0.086, -0.328, 0.513, -0.611, -1.341, 0.065, 0.308, 0.098, 0.409, 0.732, 0.179, -1.501, -0.225, -1.24, -0.67, -0.259, 0.567, 0.917, -0.841, 1.538, -0.504, 0.185, -0.716, -0.749, -0.561, 1.218, -0.806, 0.249, 1.351, 0.129, -1.177, 0.085, -1.832, -1.899, 1.125, 0.671, 0.394, 0.643, -0.666, 1.851, 0.372, -0.29, 0.662, 1.59, 0.431, 0.473, -0.584, 0.95, -0.104, -0.22, -0.228, 1.876, 1.058, 1.642, 1.398, 1.349, 0.11, 1.288, -0.679, 0.717, 1.252, -0.084, -0.629, 0.108, 1.752, -0.266, -0.179, -0.749, 1.344, 0.308, -0.472, 0.232, 0.704, 0.346, -0.006, -0.475, 0.008, 2.37, 1.6, 2.025, 2.082, 1.146, 0.393, -1.163, -0.375, 0.43, -1.171, -0.047, -0.346, -0.638, -0.313, -1.027, -0.352, 0.766, -0.034, -1.206, 1.493, 1.904, -0.128, 0.59, 2.136, 1.101, -0.05, 3.018, 1.947, -0.742, 1.193, 0.58, -0.647, -1.176, 1.451, 0.195, 0.77, 1.038, -0.679, 0.602, -1.179, 0.635, 0.294, 0.477, 2.611, -0.073, -0.243, -0.793, 0.512, 0.206, 0.68, -0.459, 0.441, 0.353, -0.45, -1.127, 2.361, -0.396, 0.113, 2.193, -0.349, -1.188, 1.351, 0.53, 0.848, 0.106, 0.184, -0.375, 0.87, -0.369, 1.237, 3.026, -0.816, -0.886, 0.443, -0.928, 1.046, -1.028, -0.64, -0.336, 0.519, 0.305, -1.398, -0.023, 0.166, 1.179, -0.615, -0.288, 1.298, 1.376, -1.401, -0.133, -0.981, -0.799, 0.658, -0.189, 0.952, -0.966, -0.037, -0.656], [-1.686, 0.295, 0.281, -1.16, -0.307, 0.484, -0.073, 1.769, 0.607, 1.213, 0.46, -0.587, -0.988, -0.525, 0.685, 0.267, 0.778, -0.126, -1.509, -0.448, -0.403, -0.691, -1.457, -0.605, -2.425, 0.644, -0.494, -0.183, -0.288, -0.43, -1.854, 0.538, -0.353, 0.338, 1.318, -2.835, -1.42, -0.662, 0.671, 0.088, 0.956, -0.921, -0.089, -0.345, -1.155, -0.374, 1.953, 1.153, 0.134, -0.162, -1.071, 1.343, 0.367, -0.199, 0.211, 0.739, 0.077, -0.115, -0.143, -0.092, 0.177, 1.888, -0.681, -0.64, 1.042, -0.275, -1.651, -1.718, -0.406, 0.55, -0.295, 1.382, 1.057, -0.413, -0.926, -0.141, -0.201, 0.718, -0.588, -0.108, -0.622, -1.045, -0.364, -1.072, 0.778, 0.205, 0.971, 1.112, 1.983, 1.014, 0.717, -0.526, -0.202, -1.701, -0.082, 1.273, -0.998, 0.059, -0.199, -0.717, 0.116, -0.553, -0.046, 0.019, -0.427, -1.242, -1.126, 0.501, 0.096, 0.389, -1.107, 1.871, 1.29, 0.611, 0.977, 0.951, -0.948, -1.796, -0.428, 0.709, -2.483, -0.454, 2.291, -0.248, -1.46, -0.543, -1.793, 0.89, -0.812, -1.006, 1.198, 1.658, 1.296, -0.596, 0.833, -0.091, 1.567, 0.405, 0.741, 2.264, 0.119, -2.217, 1.179, -1.313, 0.128, 1.83, 0.471, 1.21, -1.912, -1.134, -1.194, -2.729, 0.61, 0.258, -2.738, -0.187, -1.095, -1.651, -1.598, 0.237, 0.775, -0.149, 0.586, -0.019, 0.4, 0.083, -0.145, -1.099, 0.724, -0.059, 0.384, -1.138, 0.041, -0.623, 0.726, 0.225, -0.283, -0.096, -0.4, -0.48, -0.411, -0.944, 1.167, -0.49, 0.554, -0.257, -1.601, 0.39, -0.013, -0.893, -0.13, 0.237, -0.843, -1.505, 0.446, 0.745, -0.557, -1.01, -0.164, 0.061, -0.749, -1.489, -1.124, -0.693, -1.974, 0.285, 0.687, 0.487, 0.449, -0.98, -2.643, 1.045, 1.684, 0.266, -0.619, -0.908, 1.421, -0.785, 0.61, -0.131, 0.482, -1.46, 0.108, 0.5, 1.471, 0.535, -0.894, 0.091, 0.379, -0.551, -0.003, -2.487, 0.245, -0.235, -0.509, -0.694, 1.005, -0.959, -0.184, 1.441, -1.425, -0.725, -0.612, 1.02, -0.356, 2.326, -1.671, 0.502, -2.608, -1.623, -1.158, 0.015, 1.196, 0.563, -0.772, 0.731, 0.512, 0.895, 0.855, -0.229, 0.56, -1.601, -0.954, 0.48, 1.618, -1.305, 1.308, 0.967, 0.457, 0.821, -0.462, 1.203, -1.846, -1.708, -0.661, -2.108, 0.358, -1.639, -1.924, -0.416, 0.111, -0.76, -1.635, -0.91, 0.839, -0.782, -1.586, -1.077, -0.237, -0.243, -0.184, 1.099, -0.367, 1.941, 0.372, 1.759, -0.21, -1.299, 0.12, -0.67, -0.667, -1.731, -1.957, -2.02, 0.185, 0.484, -1.673, -0.55, -0.295, -0.248, 0.008, 0.853, -0.389, -0.015, 0.805, 0.192, 0.485, 0.544, -0.073, 0.86, -2.019, -0.571, 2.139, 1.354, 1.062, 0.264, -1.652, -0.528, 0.092, 0.281, -2.093, -0.572, -1.601, -0.617, 0.121, -2.061, 0.404, -0.728, 0.403, -1.22, 0.148, 1.214, -1.381, -0.732, 0.757, -0.017, 0.323, 0.519, 0.083, 0.388, 0.965, 1.908, 1.406, 0.738, 0.746, 2.206, 1.623, -0.21, -1.901, -1.42, -0.431, -0.708, -1.307, 0.885, 0.902, -0.549, 0.877, 0.891, 1.294, 2.428, 0.137, -1.274, 0.297, -0.553, -1.581, -2.123, 0.381, 0.213, 0.721, -0.238, 1.66, -1.038, -0.808, -0.016, 0.417, 0.466, 0.877, -0.831, 0.733, 1.048, -0.834, 0.535, 0.042, -0.194, -1.005, 1.105, 0.844, 0.826, 1.139, 0.637, 1.203, -0.866, -0.612, 0.358, 0.768, -1.294, 1.576, 1.889, 0.992, 0.457, -1.708, 0.897, 0.927, -0.304, 0.202, 0.151, 0.824, -1.787, -1.356, 1.617, -0.593, -0.966, 1.027, 0.063, -0.115, 1.013, -1.069, 0.36, -1.797, -0.636, -0.252, 0.055, -0.902, 1.51, 0.105, 2.731, 0.605, 0.426, 1.529, -0.286, -0.363, -0.035, -1.046, -1.352, -0.601, -0.884, 1.315, -0.257, -0.748, 1.858, -0.428, 0.041, 0.688, -0.896, 0.366, 0.837, -1.245, -1.104, -0.731, 0.124, 0.743, -0.659, 1.986, 0.189, 1.156, 0.26, -1.945, -1.654, 0.639, 0.294, 0.123, -0.765, -0.386, 0.501, -1.16, 2.025, -0.299, 0.76, -1.195, -0.284, 0.665, -0.372, -1.461, -2.084, 0.058, 1.163, -0.95, -0.167, 0.568, -0.396, 0.492, 0.481, 1.087, -2.231, 0.356, -1.388, -1.521, -1.597, -0.439, -1.161, -0.412, 0.106, 0.119, 0.888, -1.136, -1.812, -1.075, -0.616, 0.852, 0.297, -1.645, -1.167, -1.132, -0.259, -1.973, -1.11, 1.31, 0.007, 3.76, -2.21, -1.856, -1.325, -0.783, -0.186, -1.768, -1.011, -1.056, -1.189, -0.801, 0.094, -1.027, 0.287, 1.895, 0.031, 1.021, -0.265, -1.801, -2.474, -2.665, -0.192, -1.644, -0.565, 0.635, 0.832, 0.062, 1.314, -1.042, -1.353, -2.458, -0.577, -1.867, -2.41, -0.31, -1.267, -1.196, -0.23, -2.332, 1.86, 0.563, 0.214, -1.304, 0.357, -0.052, 0.574, -0.948, 0.441, 0.019, -2.145, -0.426, 1.05, -1.04, -0.696, -2.051, -0.629, -1.214, -0.683, -0.343, 0.737, 0.857, -0.172, -0.574, -0.574, -1.665, -2.458, 0.274, 0.886, 0.337, -0.212, -1.517, 2.373, 0.423, -0.444, -0.018, -1.087, 0.666, -0.992, 0.475, -0.552, -0.612, 0.007, -1.012, -0.517, -1.211, -0.255, 0.592, -0.083, -1.112, 0.661, 1.26, 0.155, -1.368, -0.934, -0.074, -0.172, -0.336, -1.449, -1.378, 1.728, -0.039, -0.932, 0.831, 0.112, -0.857, -0.296, 0.093, 0.792, -0.205, 0.264, -0.719, -2.313, -1.917, 0.967, -1.194, 1.319, 0.586, 0.432, 0.442, 0.184, -0.154, -0.168, -0.048, -2.207, 0.344, 0.093, 1.267, -0.836, -0.1, 0.669, 0.82, -1.016, -0.144, -0.822, 1.251, -0.629, -1.915, 0.451, -2.548, -1.444, 0.535, -2.262, -1.759, 0.403, 1.009, -1.517, -1.077, 0.168, -0.869, 1.958, 2.84, 1.22, 0.167, -0.521, 0.583, 1.665, -1.255, -0.585, 1.322, 0.56, 0.728, 0.637, 1.347, 1.072, -1.634, -0.508, -1.982, -0.959, -0.424, -1.562, -0.788, 0.232, 1.435, -0.267, -0.651, 0.349, 0.786, 0.353, -0.043, -0.283, 1.214, 0.411, 0.228, -1.2, -1.265, 0.852, 0.491, 1.362, 0.034, 0.405, 0.295, 0.488, -0.24, 1.14, -1.231, -2.17, -0.213, 1.165, -0.948, 2.07, 2.725, -1.197, -0.437, 0.536, -1.329, 0.99, 1.39, -1.254, -0.029, -1.125, 1.821, 0.298, -0.075, -0.486, 1.689, -0.053, -1.347, 0.62, 0.219, 1.542, 0.958, 0.041, -0.433, 0.896, 1.318, -0.126, 0.713, -0.449, -1.565, -1.02, -0.898, -0.211, -1.237, -2.028, -0.294, -0.29, 0.118, 1.221, -1.145, -2.267, 1.361, 1.351, 2.281, -1.038, -0.109, 0.399, 1.084, -1.023, -0.241, -0.074, 0.29, -1.783, 0.187, -0.568, -0.293, 0.321, -0.086, 1.073, -0.013, 1.062, -0.404, 0.183, -1.348, 0.383, 1.619, -0.403], [2.158, 0.798, 1.475, -0.307, 1.257, 0.801, -0.545, 0.249, 0.806, 0.187, 0.137, -0.202, -0.746, -1.439, -0.279, 0.337, -0.688, 0.134, -0.384, 0.588, -0.503, 0.433, -0.141, 1.412, 0.624, 0.519, -2.012, -1.254, 0.208, 0.17, -0.908, -0.575, -1.806, -0.721, -0.332, -2.432, -1.386, 2.531, -0.099, 0.728, 0.967, 0.183, -0.609, 1.211, -0.672, -0.201, 0.567, -1.323, -1.819, -1.521, -2.008, -1.292, -0.902, 1.434, 1.539, -0.283, 1.399, -0.494, -1.576, 1.062, -0.126, 2.254, -1.183, -1.045, -1.638, -1.353, 0.595, -1.977, 1.181, -1.864, -0.33, 0.043, -0.207, 1.074, -1.777, 0.445, 0.183, -0.505, -1.205, 0.687, 0.244, -0.414, 0.57, 0.191, -0.311, -0.575, -0.825, 0.668, -1.325, -0.757, 0.657, 0.763, -0.034, -1.351, -0.517, -0.178, -0.934, 1.107, 0.164, -0.04, 0.897, 0.467, -1.775, 0.804, -0.746, -0.455, 0.213, 0.553, 0.548, -0.825, 0.672, -1.615, -1.995, -0.114, -0.195, -0.424, 0.89, -1.087, 1.926, -0.131, -1.319, -0.116, -1.299, -0.792, 0.231, 0.099, -0.225, 0.413, -2.566, 0.312, -0.748, 0.595, -0.899, 1.637, -0.973, -1.748, -0.389, 0.059, -0.475, 0.041, 0.166, -0.54, 1.007, -0.698, -1.273, -0.427, -0.132, -0.407, 0.158, -0.506, -1.293, 0.328, -0.96, 0.283, 0.203, 1.681, -0.187, -0.007, 0.627, -0.178, 0.259, 0.53, -1.861, -2.292, -0.223, 0.713, 0.261, 0.297, -1.85, 0.425, 0.093, 0.78, 0.828, -0.432, 0.467, 0.488, -1.564, 0.521, 0.258, 0.68, -1.226, -1.558, 0.767, 0.479, 0.658, 0.471, -1.642, 1.101, 0.936, 2.167, -0.434, 0.079, 0.441, 1.408, -0.165, 0.144, 1.566, -1.182, 1.428, -0.682, 0.813, -0.638, -1.501, -0.494, 0.511, -0.814, -2.108, 2.262, -1.407, 1.714, 0.826, 0.722, 0.128, 2.716, 1.383, -0.937, 0.319, -0.627, -1.047, 0.995, 1.108, -2.2, -0.322, -1.287, 1.421, -0.08, -0.546, 0.675, 0.483, 0.539, -0.01, 0.034, -0.542, -1.33, 1.517, -0.315, -1.281, -1.158, -1.011, -0.288, 1.849, 1.458, 1.37, 1.466, 1.03, -0.047, -0.214, 0.98, 0.841, -1.772, -1.205, -0.102, 0.636, -1.864, -1.531, 0.742, 1.116, 0.144, -0.731, -0.105, -0.329, 0.04, 0.732, 0.515, -0.168, -1.377, 0.962, -0.385, -0.365, 2.134, 1.118, 1.617, -0.274, 0.186, 1.761, 0.094, -1.838, 0.469, -0.994, -0.526, 0.855, -0.514, 0.578, -0.882, -0.401, -0.108, 1.792, -1.171, -1.356, -0.947, -1.048, 0.941, -0.062, -0.563, -1.114, -2.567, -1.196, 0.052, 0.143, 0.815, 0.497, 0.666, 1.643, 1.108, 0.498, -0.729, 0.222, -1.097, -0.176, -0.121, -2.594, 0.388, -2.022, 0.266, 0.008, 0.924, 0.725, -0.535, -1.074, -0.047, -0.464, -0.734, -0.662, -1.186, -1.241, -1.132, 0.309, 0.732, 1.355, 1.268, 0.033, 1.44, -1.173, 0.279, 0.403, -0.248, 1.216, 0.046, -1.364, -0.198, -1.174, -0.879, 0.627, 2.456, -0.201, 0.521, -1.06, -0.019, 0.732, -0.991, -1.372, -1.581, -3.352, -2.913, -1.952, 0.155, 0.473, -0.101, 2.487, 1.31, 0.329, 1.635, 0.953, 0.431, -0.865, 0.373, 0.15, -1.168, -0.775, 0.404, 0.046, 0.349, -0.949, 0.317, 1.225, -0.694, 1.011, -0.609, -2.876, -1.895, -2.734, -0.412, -1.011, 1.304, 2.126, 0.341, 0.411, 1.015, 1.617, 0.535, 0.01, -2.222, -0.052, -1.397, 1.297, 0.361, -0.879, -0.494, 1.9, -0.545, 1.035, 0.507, 0.305, -0.551, -1.525, -2.479, -3.184, -0.335, -2.771, -1.422, 0.568, 0.961, -0.743, 0.597, 0.741, 0.762, 0.571, -0.237, -0.26, -2.877, 0.463, -0.08, 0.354, 1.598, -1.921, 1.676, 1.397, 0.423, 0.194, 0.331, 1.45, 0.82, -2.206, -0.539, -3.81, -1.655, -3.243, 0.439, -0.576, 1.323, 0.698, -0.351, 1.094, -0.352, 0.214, 0.236, -1.096, -0.797, 0.314, 0.593, 2.053, 0.769, -0.859, 0.445, 0.006, -0.081, 0.072, 0.275, 1.628, -1.535, -3.719, -2.112, -1.971, -1.122, -1.038, 1.568, 0.32, 0.049, 0.672, -0.754, 0.907, -0.416, 1.24, -0.285, 0.312, -0.851, -0.265, -0.455, -0.234, 0.642, -1.154, -0.112, 1.708, 1.299, 0.302, 0.765, 0.04, -0.304, -3.022, -2.829, -1.946, -0.973, -2.065, -0.305, -0.015, 1.057, 0.841, 0.171, -1.197, 1.459, 0.656, -0.131, -0.599, 0.2, -0.126, -0.282, -1.25, -1.642, 1.243, 1.052, -0.736, 0.02, 1.696, 1.271, -0.214, 0.118, -1.774, -0.361, -0.7, -0.94, 0.342, 0.065, 0.128, -0.358, -1.091, 0.101, 0.21, -0.39, 0.124, 0.508, 0.227, 0.907, 0.644, 1.27, 0.366, 0.077, -1.53, 0.181, -0.529, -0.501, 0.781, 0.293, 2.434, 0.355, 0.234, -0.088, -0.949, -0.591, 0.261, -1.333, -0.665, -0.88, 0.473, -0.148, -0.628, 0.544, -0.646, -1.082, -1.354, 1.363, 1.115, -0.094, 2.595, -1.321, -0.646, -0.807, -0.27, 0.875, 0.615, 1.169, 1.094, -0.966, 1.248, 0.4, -1.81, 0.019, -0.819, -0.082, -0.109, -1.263, -0.702, -0.196, -0.728, -0.091, 0.268, -0.229, 0.01, -0.529, 0.804, 2.026, 0.846, 1.985, -0.676, -0.229, -0.326, 0.826, -1.043, -0.816, -0.46, 1.347, 1.128, -0.178, -1.08, -0.286, -0.092, -0.16, -0.877, -0.566, 0.048, -1.166, -1.09, -0.784, -0.771, 0.781, 0.301, -1.505, 0.173, 0.886, -1.21, -1.812, -1.462, -0.677, 0.425, -0.555, 1.544, 0.517, -0.018, 1.858, 0.884, -1.578, 0.488, 0.136, -0.601, 1.984, 0.275, -0.394, 0.141, -1.156, -0.773, -1.424, -0.5, 0.24, 0.652, -0.639, -0.366, 1.141, 0.756, 0.601, 0.977, 0.175, 0.462, -0.778, 1.192, -0.689, 0.939, -1.282, 1.691, 0.067, -0.458, 0.57, -0.517, -0.757, -0.229, -0.408, -1.048, -0.13, 0.16, -2.19, -2.381, 0.114, -0.551, 1.261, -1.79, 0.171, 0.601, -0.173, -2.345, 0.629, -0.814, 0.422, 0.918, -0.631, -0.899, 1.412, -0.101, -0.92, -1.285, -1.526, 1.209, -1.378, -2.95, 1.688, -0.374, 0.443, -0.047, 0.047, 1.124, -0.103, 0.119, 1.296, 0.463, 0.183, 0.228, 0.771, 0.268, -2.237, -0.578, -0.988, 0.478, -1.03, -0.666, -0.185, 0.976, -1.924, 1.319, -0.221, -0.199, -0.543, 0.838, 1.396, 0.316, -0.628, 2.292, 1.245, 0.087, 0.289, -0.503, 0.205, 1.528, -0.211, 1.913, -0.221, 0.478, 1.344, -0.308, -0.328, 1.111, 0.544, 0.127, 1.659, -0.762, -0.215, -0.122, -0.399, 0.599, 1.007, -1.098, 1.457, 0.775, 0.558, 2.752, 1.017, -0.17, 0.222, -1.41, -1.302, -1.517, -0.82, 0.391, -1.384, 0.426, 0.16, -1.524, 0.097, 0.274, 0.605, -1.864, 0.477, 0.266, -0.096, 0.571, -0.864, -0.516, -2.182, -0.08, 0.104, -0.346, 0.914, 0.707, 0.506, 0.441, 1.567, 0.253, 1.822], [0.263, -1.241, 0.358, 0.418, -0.371, 1.173, -2.014, -0.699, -0.773, -1.986, -0.662, 0.225, -0.453, -0.544, 0.817, -1.095, 0.331, -1.047, -0.336, 0.726, 0.025, -1.517, -1.378, 0.185, -1.682, 0.052, -1.19, -0.603, 0.832, -1.869, -1.502, -2.853, -0.333, -0.333, -0.656, 0.266, 0.122, -0.911, 0.125, 0.151, -0.553, -0.106, -0.93, 0.201, -0.863, -0.083, 1.213, -0.093, 1.218, -1.613, 0.631, 0.809, -0.3, 0.009, -2.594, -1.819, 0.4, -1.117, 0.899, -1.538, 0.102, 0.446, 1.138, 0.02, 1.119, 0.967, -0.363, 1.77, -0.464, 0.991, -0.643, 0.644, 0.962, 2.565, 0.872, 1.131, 1.189, 0.579, 0.841, 1.046, -2.372, 0.822, -0.048, 1.069, 0.373, -0.31, -1.081, 1.707, 0.881, -0.612, 0.602, 0.019, -0.141, -0.239, 0.725, 1.552, 0.559, -2.131, -0.556, 0.723, 1.189, 1.197, 2.291, 0.509, -0.781, -2.183, -0.011, -0.634, 0.336, 2.06, 1.685, 0.49, 0.007, -1.074, 1.884, -0.521, 1.642, -0.363, -0.5, -0.226, -1.154, 0.117, 0.73, -0.39, -1.306, -0.013, 0.712, -0.429, -0.106, -1.682, -0.204, 2.821, 0.245, -0.3, -0.745, -0.572, 0.17, 0.072, -1.884, 1.702, -0.62, 0.574, 1.721, 0.614, -0.033, 0.964, 1.621, -1.65, -1.433, 1.783, -0.59, -1.623, -0.964, -1.83, -1.214, -1.286, -0.085, 1.175, 0.349, -0.497, 0.368, -0.23, -0.19, 0.171, -0.767, -0.714, 0.195, -0.913, -1.214, 1.113, 0.277, 1.585, 0.067, -0.116, -0.227, -0.891, 1.36, -1.24, 0.176, 0.291, -0.855, 0.527, -1.008, -1.324, -0.034, -0.62, 1.47, -0.136, 1.266, -0.789, 0.365, -1.745, 0.081, -1.023, 0.678, -0.73, -0.106, -0.716, -2.449, -0.994, -0.264, -0.924, -1.442, -0.17, 0.204, -2.996, 